{"learner":{"attributes":{"scikit_learn":"{\"_estimator_type\": \"classifier\"}"},"feature_names":[],"feature_types":[],"gradient_booster":{"model":{"cats":{"enc":[],"feature_segments":[],"sorted_idx":[]},"gbtree_model_param":{"num_parallel_tree":"1","num_trees":"300"},"iteration_indptr":[0,1,2,3,4,5,6,7,8,9,10,11,12,13,14,15,16,17,18,19,20,21,22,23,24,25,26,27,28,29,30,31,32,33,34,35,36,37,38,39,40,41,42,43,44,45,46,47,48,49,50,51,52,53,54,55,56,57,58,59,60,61,62,63,64,65,66,67,68,69,70,71,72,73,74,75,76,77,78,79,80,81,82,83,84,85,86,87,88,89,90,91,92,93,94,95,96,97,98,99,100,101,102,103,104,105,106,107,108,109,110,111,112,113,114,115,116,117,118,119,120,121,122,123,124,125,126,127,128,129,130,131,132,133,134,135,136,137,138,139,140,141,142,143,144,145,146,147,148,149,150,151,152,153,154,155,156,157,158,159,160,161,162,163,164,165,166,167,168,169,170,171,172,173,174,175,176,177,178,179,180,181,182,183,184,185,186,187,188,189,190,191,192,193,194,195,196,197,198,199,200,201,202,203,204,205,206,207,208,209,210,211,212,213,214,215,216,217,218,219,220,221,222,223,224,225,226,227,228,229,230,231,232,233,234,235,236,237,238,239,240,241,242,243,244,245,246,247,248,249,250,251,252,253,254,255,256,257,258,259,260,261,262,263,264,265,266,267,268,269,270,271,272,273,274,275,276,277,278,279,280,281,282,283,284,285,286,287,288,289,290,291,292,293,294,295,296,297,298,299,300],"tree_info":[0,0,0,0,0,0,0,0,0,0,0,0,0,0,0,0,0,0,0,0,0,0,0,0,0,0,0,0,0,0,0,0,0,0,0,0,0,0,0,0,0,0,0,0,0,0,0,0,0,0,0,0,0,0,0,0,0,0,0,0,0,0,0,0,0,0,0,0,0,0,0,0,0,0,0,0,0,0,0,0,0,0,0,0,0,0,0,0,0,0,0,0,0,0,0,0,0,0,0,0,0,0,0,0,0,0,0,0,0,0,0,0,0,0,0,0,0,0,0,0,0,0,0,0,0,0,0,0,0,0,0,0,0,0,0,0,0,0,0,0,0,0,0,0,0,0,0,0,0,0,0,0,0,0,0,0,0,0,0,0,0,0,0,0,0,0,0,0,0,0,0,0,0,0,0,0,0,0,0,0,0,0,0,0,0,0,0,0,0,0,0,0,0,0,0,0,0,0,0,0,0,0,0,0,0,0,0,0,0,0,0,0,0,0,0,0,0,0,0,0,0,0,0,0,0,0,0,0,0,0,0,0,0,0,0,0,0,0,0,0,0,0,0,0,0,0,0,0,0,0,0,0,0,0,0,0,0,0,0,0,0,0,0,0,0,0,0,0,0,0,0,0,0,0,0,0,0,0,0,0,0,0,0,0,0,0,0,0,0,0,0,0,0,0,0,0,0,0,0,0],"trees":[{"base_weights":[-5.3547523E-3,-1.8828607E0,1.6278155E0,-1.9053328E0,9.3333334E-2,1.971657E0,-9.6420413E-1,-1.9158549E0,8.6666666E-2,1.9963306E0,-7.5E-2,-1.2845815E0,1.0549451E0,-1.9195105E0,6.923077E-2,2.5E-1,9.991836E-2,1.0769231E0,-1.4227188E0,-3.243243E-1,9.642857E-2,-9.633239E-2,-5.8823533E-2,5E-2,-1.6666668E-2,-1.1111111E-2,9.047619E-2,7.272728E-2,-7.386364E-2,-5.0877195E-2,8.095238E-2],"categories":[],"categories_nodes":[],"categories_segments":[],"categories_sizes":[],"default_left":[0,0,0,0,0,0,0,0,0,0,0,0,0,0,0,0,0,0,0,0,0,0,0,0,0,0,0,0,0,0,0],"id":0,"left_children":[1,3,5,7,-1,9,11,13,-1,15,-1,17,19,21,-1,23,-1,25,27,29,-1,-1,-1,-1,-1,-1,-1,-1,-1,-1,-1],"loss_changes":[1.6036678E4,2.0856055E2,2.4947114E3,9.593555E1,0E0,2.1454883E2,2.1369672E2,3.1764648E1,0E0,8.223633E0,0E0,9.409476E1,5.5451443E1,1.0515625E1,0E0,2.0833333E0,0E0,1.586813E1,4.429413E1,2.6570345E1,0E0,0E0,0E0,0E0,0E0,0E0,0E0,0E0,0E0,0E0,0E0],"parents":[2147483647,0,0,1,1,2,2,3,3,5,5,6,6,7,7,9,9,11,11,12,12,13,13,15,15,17,17,18,18,19,19],"right_children":[2,4,6,8,-1,10,12,14,-1,16,-1,18,20,22,-1,24,-1,26,28,30,-1,-1,-1,-1,-1,-1,-1,-1,-1,-1,-1],"split_conditions":[2.573424E-1,6.9904476E-1,2.912329E-1,1.3483219E1,9.3333334E-2,4.679511E-3,6.306665E-2,6.958023E-1,8.6666666E-2,-1.1733325E-2,-7.5E-2,-3.3780015E-1,-2.154614E0,1.4295317E0,6.923077E-2,-2.2696367E-1,9.991836E-2,-1.6282011E0,-1.6282011E0,5.3221047E-1,9.642857E-2,-9.633239E-2,-5.8823533E-2,5E-2,-1.6666668E-2,-1.1111111E-2,9.047619E-2,7.272728E-2,-7.386364E-2,-5.0877195E-2,8.095238E-2],"split_indices":[5,9,5,11,0,6,3,2,0,6,0,2,10,10,0,6,0,8,8,2,0,0,0,0,0,0,0,0,0,0,0],"split_type":[0,0,0,0,0,0,0,0,0,0,0,0,0,0,0,0,0,0,0,0,0,0,0,0,0,0,0,0,0,0,0],"sum_hessian":[5.228E3,2.432E3,2.796E3,2.418E3,1.4E1,2.46875E3,3.2725E2,2.4115E3,6.5E0,2.45175E3,1.7E1,2.8275E2,4.45E1,2.40925E3,2.25E0,3E0,2.44875E3,1.525E1,2.675E2,1.75E1,2.7E1,2.38475E3,2.45E1,1E0,2E0,5.75E0,9.5E0,4.5E0,2.63E2,1.325E1,4.25E0],"tree_param":{"num_deleted":"0","num_feature":"12","num_nodes":"31","size_leaf_vector":"1"}},{"base_weights":[-6.3107177E-3,-1.7941593E0,1.552746E0,-1.8146738E0,8.894186E-2,9.401661E-2,-9.311796E-1,-1.8250364E0,8.346127E-2,-1.2013419E0,1.5421983E0,7.37948E-2,-1.8290431E0,-1.3055465E0,8.799053E-2,9.332547E-2,-7.292759E-2,-9.165298E-2,7.371573E-2,-6.846836E-2,8.287167E-2],"categories":[],"categories_nodes":[],"categories_segments":[],"categories_sizes":[],"default_left":[0,0,0,0,0,0,0,0,0,0,0,0,0,0,0,0,0,0,0,0,0],"id":1,"left_children":[1,3,5,7,-1,-1,9,11,-1,13,15,-1,17,19,-1,-1,-1,-1,-1,-1,-1],"loss_changes":[1.4638469E4,1.8254248E2,2.2844824E3,9.087891E1,0E0,0E0,2.2071912E2,3.4788086E1,0E0,9.358624E1,3.4536926E1,0E0,3.4859375E1,5.6421204E1,0E0,0E0,0E0,0E0,0E0,0E0,0E0],"parents":[2147483647,0,0,1,1,2,2,3,3,6,6,7,7,9,9,10,10,12,12,13,13],"right_children":[2,4,6,8,-1,-1,10,12,-1,14,16,-1,18,20,-1,-1,-1,-1,-1,-1,-1],"split_conditions":[2.573424E-1,6.9904476E-1,2.912329E-1,1.3483219E1,8.894186E-2,9.401661E-2,8.5230744E-1,-3.8536274E0,8.346127E-2,1.3483219E1,1.0498713E0,7.37948E-2,2.9046407E0,3.5845327E0,8.799053E-2,9.332547E-2,-7.292759E-2,-9.165298E-2,7.371573E-2,-6.846836E-2,8.287167E-2],"split_indices":[5,9,5,11,0,0,7,7,0,11,4,0,7,9,0,0,0,0,0,0,0],"split_type":[0,0,0,0,0,0,0,0,0,0,0,0,0,0,0,0,0,0,0,0,0],"sum_hessian":[5.249738E3,2.4453647E3,2.804373E3,2.431894E3,1.3470643E1,2.4778333E3,3.2653973E2,2.4251567E3,6.737341E0,2.9484833E2,3.1691416E1,2.4947686E0,2.4226619E3,2.8536526E2,9.483061E0,2.8941502E1,2.749915E0,2.4201643E3,2.4974756E0,2.7987476E2,5.490489E0],"tree_param":{"num_deleted":"0","num_feature":"12","num_nodes":"21","size_leaf_vector":"1"}},{"base_weights":[-7.729535E-4,-1.733733E0,1.5898952E0,7.080665E-2,-1.7387173E0,-9.157572E-1,1.7808677E0,-1.748037E0,-3.0236533E-1,-1.0653087E0,8.582551E-2,-4.767045E-1,1.8171589E0,-1.7498363E0,5.0447173E-2,-5.7948875E-1,6.8377115E-2,3.4941489E-1,-1.2780546E0,-1.206867E0,1.0431125E0,3.4008816E-1,9.11571E-2,-8.821042E-2,-7.432627E-2,3.8815054E-4,-5.6533154E-2,-7.8459285E-2,8.479053E-2,5.0364543E-2,-6.792727E-2,7.372848E-2,-7.9409175E-2,-4.8837837E-2,7.6171264E-2,-5.430154E-2,7.7765636E-2],"categories":[],"categories_nodes":[],"categories_segments":[],"categories_sizes":[],"default_left":[0,0,0,0,0,0,0,0,0,0,0,0,0,0,0,0,0,0,0,0,0,0,0,0,0,0,0,0,0,0,0,0,0,0,0,0,0],"id":2,"left_children":[1,3,5,-1,7,9,11,13,15,17,-1,19,21,23,-1,25,-1,27,29,31,33,35,-1,-1,-1,-1,-1,-1,-1,-1,-1,-1,-1,-1,-1,-1,-1],"loss_changes":[1.4278312E4,4.138086E1,1.2939702E3,0E0,3.2609863E1,7.7381836E1,2.064961E2,1.3965332E1,8.737308E0,5.5291855E1,0E0,4.6202534E1,2.1211426E1,6.6796875E0,0E0,5.0020967E0,0E0,6.6223175E1,3.0546143E1,3.0787907E1,1.4759449E1,2.1091213E1,0E0,0E0,0E0,0E0,0E0,0E0,0E0,0E0,0E0,0E0,0E0,0E0,0E0,0E0,0E0],"parents":[2147483647,0,0,1,1,2,2,4,4,5,5,6,6,7,7,8,8,9,9,11,11,12,12,13,13,15,15,17,17,18,18,19,19,20,20,21,21],"right_children":[2,4,6,-1,8,10,12,14,16,18,-1,20,22,24,-1,26,-1,28,30,32,34,36,-1,-1,-1,-1,-1,-1,-1,-1,-1,-1,-1,-1,-1,-1,-1],"split_conditions":[6.2780994E-1,-3.3780015E-1,5.888178E-2,7.080665E-2,3.9857907E0,6.958023E-1,1.928962E-1,1.9015503E-1,1.8987924E-1,-1.6282011E0,8.582551E-2,-3.1498337E-1,-2.6710472E0,5.718175E-1,5.0447173E-2,-4.1160136E-1,6.8377115E-2,-1.5719664E0,7.93973E-1,-5.491257E-1,-9.0283746E-1,-7.2577035E-1,9.11571E-2,-8.821042E-2,-7.432627E-2,3.8815054E-4,-5.6533154E-2,-7.8459285E-2,8.479053E-2,5.0364543E-2,-6.792727E-2,7.372848E-2,-7.9409175E-2,-4.8837837E-2,7.6171264E-2,-5.430154E-2,7.7765636E-2],"split_indices":[1,2,7,0,5,2,5,2,0,8,0,0,8,5,0,0,0,3,1,0,3,3,0,0,0,0,0,0,0,0,0,0,0,0,0,0,0],"split_type":[0,0,0,0,0,0,0,0,0,0,0,0,0,0,0,0,0,0,0,0,0,0,0,0,0,0,0,0,0,0,0,0,0,0,0,0,0],"sum_hessian":[5.1777485E3,2.4779956E3,2.6997527E3,3.467617E0,2.474528E3,1.9092525E2,2.5088276E3,2.45836E3,1.6167976E1,1.8122433E2,9.700921E0,3.9500225E1,2.4693274E3,2.4571218E3,1.2383199E0,1.442681E1,1.7411668E0,2.3606012E1,1.5761832E2,2.6820719E1,1.2679508E1,1.0195314E1,2.459132E3,2.3245444E3,1.3257741E2,7.4621434E0,6.9646673E0,9.666242E0,1.3939771E1,4.9707675E0,1.5264755E2,2.9822612E0,2.3838457E1,2.2373114E0,1.0442197E1,4.739554E0,5.4557605E0],"tree_param":{"num_deleted":"0","num_feature":"12","num_nodes":"37","size_leaf_vector":"1"}},{"base_weights":[-1.0847483E-3,-1.6574689E0,1.5150166E0,7.048424E-2,-1.6629595E0,-9.512671E-1,1.7214205E0,-1.6717777E0,-2.768298E-2,-1.1373454E0,8.4451176E-2,8.761796E-2,-3.3447474E-1,-8.4914885E-2,-1.4921237E0,-1.2548034E0,8.064733E-2,-1.0641243E0,1.3403528E0,-5.6610078E-2,-7.702313E-2,-6.766846E-2,8.000938E-2,4.7454942E-2,-6.317758E-2,-1.1416764E-2,8.156614E-2],"categories":[],"categories_nodes":[],"categories_segments":[],"categories_sizes":[],"default_left":[0,0,0,0,0,0,0,0,0,0,0,0,0,0,0,0,0,0,0,0,0,0,0,0,0,0,0],"id":3,"left_children":[1,3,5,-1,7,9,11,13,-1,15,-1,-1,17,-1,19,21,-1,23,25,-1,-1,-1,-1,-1,-1,-1,-1],"loss_changes":[1.2910051E4,4.3717773E1,1.3679858E3,0E0,2.3067871E1,1.0407732E2,1.5815088E2,9.058105E0,0E0,6.496524E1,0E0,0E0,4.7332752E1,0E0,3.8440552E0,5.4906647E1,0E0,1.19284935E1,5.7776566E0,0E0,0E0,0E0,0E0,0E0,0E0,0E0,0E0],"parents":[2147483647,0,0,1,1,2,2,4,4,5,5,6,6,7,7,9,9,12,12,14,14,15,15,17,17,18,18],"right_children":[2,4,6,-1,8,10,12,14,-1,16,-1,-1,18,-1,20,22,-1,24,26,-1,-1,-1,-1,-1,-1,-1,-1],"split_conditions":[6.2780994E-1,-3.3780015E-1,7.737688E-2,7.048424E-2,4.1330566E0,1.3483219E1,3.0880716E-1,3.0880716E-1,-2.768298E-2,2.9046407E0,8.4451176E-2,8.761796E-2,-6.7631453E-1,-8.4914885E-2,6.0252E-1,6.958023E-1,8.064733E-2,-1.2531302E0,6.9904476E-1,-5.6610078E-2,-7.702313E-2,-6.766846E-2,8.000938E-2,4.7454942E-2,-6.317758E-2,-1.1416764E-2,8.156614E-2],"split_indices":[1,2,9,0,6,11,6,6,0,7,0,0,10,0,6,2,0,8,9,0,0,0,0,0,0,0,0],"split_type":[0,0,0,0,0,0,0,0,0,0,0,0,0,0,0,0,0,0,0,0,0,0,0,0,0,0,0],"sum_hessian":[5.138894E3,2.4557852E3,2.683109E3,3.9312932E0,2.4518538E3,2.0693019E2,2.4761787E3,2.432014E3,1.9839987E1,1.9383838E2,1.3091811E1,2.4396133E3,3.6565506E1,2.111821E3,3.201928E2,1.8642058E2,7.417789E0,2.5723522E1,1.0841985E1,4.080306E1,2.7938974E2,1.8070778E2,5.7127976E0,1.9796602E0,2.3743862E1,1.7300636E0,9.111921E0],"tree_param":{"num_deleted":"0","num_feature":"12","num_nodes":"27","size_leaf_vector":"1"}},{"base_weights":[-8.706776E-3,-1.5928549E0,1.3670323E0,-1.6112515E0,8.076402E-2,1.663803E0,-7.8491557E-1,-1.6204029E0,7.5677335E-2,1.6871927E0,-6.971698E-2,-1.0273577E0,1.372999E0,7.4921906E-2,-1.6246911E0,1.3395891E-2,8.441333E-2,-1.1254804E0,8.0673814E-2,8.4036976E-2,-6.78379E-2,-8.1400506E-2,6.358201E-2,5.6013454E-2,-6.027177E-2],"categories":[],"categories_nodes":[],"categories_segments":[],"categories_sizes":[],"default_left":[0,0,0,0,0,0,0,0,0,0,0,0,0,0,0,0,0,0,0,0,0,0,0,0,0],"id":4,"left_children":[1,3,5,7,-1,9,11,13,-1,15,-1,17,19,-1,21,-1,-1,23,-1,-1,-1,-1,-1,-1,-1],"loss_changes":[1.1047905E4,1.4166162E2,1.7340005E3,6.9461426E1,0E0,1.7292285E2,1.737919E2,3.3688477E1,0E0,3.1557617E0,0E0,7.872104E1,3.0596802E1,0E0,2.4509277E1,0E0,0E0,5.2837677E1,0E0,0E0,0E0,0E0,0E0,0E0,0E0],"parents":[2147483647,0,0,1,1,2,2,3,3,5,5,6,6,7,7,9,9,11,11,12,12,14,14,17,17],"right_children":[2,4,6,8,-1,10,12,14,-1,16,-1,18,20,-1,22,-1,-1,24,-1,-1,-1,-1,-1,-1,-1],"split_conditions":[2.573424E-1,6.9904476E-1,2.912329E-1,1.3483219E1,8.076402E-2,4.679511E-3,8.5230744E-1,-3.8536274E0,7.5677335E-2,-1.1733325E-2,-6.971698E-2,1.3483219E1,1.0498713E0,7.4921906E-2,2.9046407E0,1.3395891E-2,8.441333E-2,-1.6282011E0,8.0673814E-2,8.4036976E-2,-6.78379E-2,-8.1400506E-2,6.358201E-2,5.6013454E-2,-6.027177E-2],"split_indices":[5,9,5,11,0,6,7,7,0,6,0,11,4,0,7,0,0,8,0,0,0,0,0,0,0],"split_type":[0,0,0,0,0,0,0,0,0,0,0,0,0,0,0,0,0,0,0,0,0,0,0,0,0],"sum_hessian":[5.067302E3,2.3551804E3,2.7121216E3,2.3422468E3,1.293359E1,2.3836272E3,3.2849432E2,2.3358872E3,6.3595085E0,2.3659797E3,1.764751E1,2.9578656E2,3.2707767E1,2.7289188E0,2.3331584E3,1.978203E0,2.3640015E3,2.857433E2,1.004325E1,2.9739374E1,2.9683938E0,2.330925E3,2.2332156E0,9.376209E0,2.763671E2],"tree_param":{"num_deleted":"0","num_feature":"12","num_nodes":"25","size_leaf_vector":"1"}},{"base_weights":[7.2520133E-4,-1.5443052E0,1.4218574E0,6.655302E-2,-1.5497445E0,1.5857381E0,-1.5196749E0,-1.5591255E0,-1.4446594E-1,-1.4893332E0,1.6284611E0,-8.022934E-2,-5.9052306E-1,-1.5612026E0,5.3189505E-2,1.0093739E-2,-1.0146522E-2,-7.917977E-2,-5.379309E-1,6.7652744E-1,8.186772E-2,-4.428833E-2,5.2830227E-2,-7.8608915E-2,-6.285082E-2,-5.883658E-2,3.4280296E-2,-3.5433415E-2,8.381413E-2],"categories":[],"categories_nodes":[],"categories_segments":[],"categories_sizes":[],"default_left":[0,0,0,0,0,0,0,0,0,0,0,0,0,0,0,0,0,0,0,0,0,0,0,0,0,0,0,0,0],"id":5,"left_children":[1,3,5,-1,7,9,11,13,15,17,19,-1,21,23,-1,-1,-1,-1,25,27,-1,-1,-1,-1,-1,-1,-1,-1,-1],"loss_changes":[1.0998706E4,3.9597656E1,1.2602153E3,0E0,3.1359863E1,3.2719043E2,9.95639E0,1.4626953E1,3.849971E-1,2.2328491E0,1.9537598E1,0E0,7.333206E0,5.9643555E0,0E0,0E0,0E0,0E0,4.4139366E0,3.4806427E1,0E0,0E0,0E0,0E0,0E0,0E0,0E0,0E0,0E0],"parents":[2147483647,0,0,1,1,2,2,4,4,5,5,6,6,7,7,8,8,9,9,10,10,12,12,13,13,18,18,19,19],"right_children":[2,4,6,-1,8,10,12,14,16,18,20,-1,22,24,-1,-1,-1,-1,26,28,-1,-1,-1,-1,-1,-1,-1,-1,-1],"split_conditions":[6.2780994E-1,-3.3780015E-1,7.586395E-1,6.655302E-2,3.9857907E0,-8.183981E-1,1.5386919E0,1.9015503E-1,4.1330566E0,-3.568787E0,-2.2600983E-1,-8.022934E-2,1.0498713E0,1.436895E0,5.3189505E-2,1.0093739E-2,-1.0146522E-2,-7.917977E-2,-9.399528E-1,-2.910268E0,8.186772E-2,-4.428833E-2,5.2830227E-2,-7.8608915E-2,-6.285082E-2,-5.883658E-2,3.4280296E-2,-3.5433415E-2,8.381413E-2],"split_indices":[1,2,4,0,5,5,9,2,6,9,5,0,4,6,0,0,0,0,3,9,0,0,0,0,0,0,0,0,0],"split_type":[0,0,0,0,0,0,0,0,0,0,0,0,0,0,0,0,0,0,0,0,0,0,0,0,0,0,0,0,0],"sum_hessian":[5.0072197E3,2.398991E3,2.6082285E3,4.0693502E0,2.3949216E3,2.4710222E3,1.372064E2,2.3789314E3,1.5990311E1,3.339636E1,2.4376257E3,1.2505146E2,1.2154948E1,2.3774534E3,1.4779152E0,1.9551508E0,1.403516E1,2.9781235E1,3.6151235E0,2.3275803E1,2.41435E3,1.0699352E1,1.4555967E0,2.2906348E3,8.6818756E1,2.4002318E0,1.2148914E0,9.879108E0,1.3396694E1],"tree_param":{"num_deleted":"0","num_feature":"12","num_nodes":"29","size_leaf_vector":"1"}},{"base_weights":[3.6592649E-3,-1.497019E0,1.377656E0,6.0931455E-2,-1.5011269E0,1.5368737E0,-1.4621396E0,-1.5092272E0,-3.1097466E-1,-1.4302863E0,1.5779288E0,-1.5267327E0,-1.0532777E0,-1.5254045E0,-1.2086276E0,-5.080969E-1,6.0570955E-2,-7.8371674E-2,4.6657953E-2,6.554161E-1,7.938807E-2,-1.5480467E0,-4.4756705E-1,-7.485826E-2,-3.1474095E-2,-7.634204E-2,1.867381E-2,-6.9567375E-2,-1.5587166E-2,1.775887E-2,-5.3207543E-2,-2.6502905E-2,8.292689E-2,-4.054321E-2,-7.834127E-2,1.49503425E-2,-4.733068E-2],"categories":[],"categories_nodes":[],"categories_segments":[],"categories_sizes":[],"default_left":[0,0,0,0,0,0,0,0,0,0,0,0,0,0,0,0,0,0,0,0,0,0,0,0,0,0,0,0,0,0,0,0,0,0,0,0,0],"id":6,"left_children":[1,3,5,-1,7,9,11,13,15,17,19,21,23,25,27,29,-1,-1,-1,31,-1,33,35,-1,-1,-1,-1,-1,-1,-1,-1,-1,-1,-1,-1,-1,-1],"loss_changes":[1.0038306E4,2.7787598E1,1.1513633E3,0E0,2.193457E1,2.954756E2,1.9688416E0,9.379395E0,5.707903E0,1.2280815E1,2.0499023E1,1.9462585E0,3.1401997E0,6.5322266E0,1.9670273E1,7.9279685E0,0E0,0E0,0E0,3.268479E1,0E0,2.8146362E-1,1.6350852E0,0E0,0E0,0E0,0E0,0E0,0E0,0E0,0E0,0E0,0E0,0E0,0E0,0E0,0E0],"parents":[2147483647,0,0,1,1,2,2,4,4,5,5,6,6,7,7,8,8,9,9,10,10,11,11,12,12,13,13,14,14,15,15,19,19,21,21,22,22],"right_children":[2,4,6,-1,8,10,12,14,16,18,20,22,24,26,28,30,-1,-1,-1,32,-1,34,36,-1,-1,-1,-1,-1,-1,-1,-1,-1,-1,-1,-1,-1,-1],"split_conditions":[6.2780994E-1,-3.3780015E-1,7.586395E-1,6.0931455E-2,3.9857907E0,-8.183981E-1,2.4485128E0,5.718175E-1,2.8133035E-1,-2.2138724E-2,-2.2600983E-1,6.511863E-1,-1.8298174E-1,-1.8052643E-2,-1.262977E-1,-7.281832E-1,6.0570955E-2,-7.8371674E-2,4.6657953E-2,-4.3460533E-1,7.938807E-2,-3.8536274E0,1.0882468E0,-7.485826E-2,-3.1474095E-2,-7.634204E-2,1.867381E-2,-6.9567375E-2,-1.5587166E-2,1.775887E-2,-5.3207543E-2,-2.6502905E-2,8.292689E-2,-4.054321E-2,-7.834127E-2,1.49503425E-2,-4.733068E-2],"split_indices":[1,2,4,0,5,5,5,5,0,0,5,2,0,2,0,0,0,0,0,0,0,7,0,0,0,0,0,0,0,0,0,0,0,0,0,0,0],"split_type":[0,0,0,0,0,0,0,0,0,0,0,0,0,0,0,0,0,0,0,0,0,0,0,0,0,0,0,0,0,0,0,0,0,0,0,0,0],"sum_hessian":[4.8664097E3,2.3259353E3,2.5404746E3,3.0665064E0,2.322869E3,2.4060352E3,1.3443942E2,2.3068997E3,1.5969091E1,3.237495E1,2.3736602E3,1.1373684E2,2.0702578E1,2.1852234E3,1.21676254E2,1.4728296E1,1.2407944E0,3.0917648E1,1.4573034E0,2.5746E1,2.347914E3,1.1110793E2,2.628909E0,8.87455E0,1.1828027E1,2.1837678E3,1.4557698E0,1.0062489E2,2.1051357E1,5.911672E0,8.816625E0,1.2016579E1,1.3729421E1,3.8574755E0,1.0725046E2,1.2138431E0,1.415066E0],"tree_param":{"num_deleted":"0","num_feature":"12","num_nodes":"37","size_leaf_vector":"1"}},{"base_weights":[4.6627005E-3,-1.4501368E0,1.3385911E0,6.135434E-2,-1.4547462E0,1.4931669E0,-1.4062375E0,-1.4639543E0,-1.8635948E-1,-1.4220005E0,1.5337133E0,-1.4358118E0,4.9725775E-2,-1.4856722E0,-1.2432259E0,-4.4083652E-1,6.788579E-2,-7.6206565E-2,3.4539144E-2,4.6648467E-1,1.5409389E0,-7.771317E-2,-1.2054527E0,-7.4624486E-2,-5.1869787E-2,-6.363373E-2,7.567572E-2,8.364676E-3,-5.4849822E-2,-4.919598E-2,7.707881E-2,4.8766308E-2,7.7113755E-2,3.201184E-3,-6.603529E-2],"categories":[],"categories_nodes":[],"categories_segments":[],"categories_sizes":[],"default_left":[0,0,0,0,0,0,0,0,0,0,0,0,0,0,0,0,0,0,0,0,0,0,0,0,0,0,0,0,0,0,0,0,0,0,0],"id":7,"left_children":[1,3,5,-1,7,9,11,13,15,17,19,21,-1,23,25,27,-1,-1,-1,29,31,-1,33,-1,-1,-1,-1,-1,-1,-1,-1,-1,-1,-1,-1],"loss_changes":[9.303592E3,3.0083984E1,1.0632295E3,0E0,2.6469238E1,2.8209375E2,1.0931366E1,9.049805E0,7.5332203E0,8.174675E0,1.7295898E1,1.7454529E0,0E0,4.760742E0,1.8953888E1,6.5306544E0,0E0,0E0,0E0,2.8250013E1,2.4853516E-1,0E0,7.3262863E0,0E0,0E0,0E0,0E0,0E0,0E0,0E0,0E0,0E0,0E0,0E0,0E0],"parents":[2147483647,0,0,1,1,2,2,4,4,5,5,6,6,7,7,8,8,9,9,10,10,11,11,13,13,14,14,15,15,19,19,20,20,22,22],"right_children":[2,4,6,-1,8,10,12,14,16,18,20,22,-1,24,26,28,-1,-1,-1,30,32,-1,34,-1,-1,-1,-1,-1,-1,-1,-1,-1,-1,-1,-1],"split_conditions":[6.2780994E-1,-3.3780015E-1,7.586395E-1,6.135434E-2,3.9857907E0,-8.183981E-1,6.958023E-1,2.573424E-1,1.8987924E-1,8.439384E-2,-3.6257917E-1,-1.8298174E-1,4.9725775E-2,1.5404146E0,1.0480156E0,-4.1160136E-1,6.788579E-2,-7.6206565E-2,3.4539144E-2,-4.532353E-1,-2.4960902E-1,-7.771317E-2,-1.2531302E0,-7.4624486E-2,-5.1869787E-2,-6.363373E-2,7.567572E-2,8.364676E-3,-5.4849822E-2,-4.919598E-2,7.707881E-2,4.8766308E-2,7.7113755E-2,3.201184E-3,-6.603529E-2],"split_indices":[1,2,4,0,5,5,2,5,0,0,5,0,0,0,0,0,0,0,0,0,5,0,8,0,0,0,0,0,0,0,0,0,0,0,0],"split_type":[0,0,0,0,0,0,0,0,0,0,0,0,0,0,0,0,0,0,0,0,0,0,0,0,0,0,0,0,0,0,0,0,0,0,0],"sum_hessian":[4.792187E3,2.2921985E3,2.4999883E3,3.4838893E0,2.2887146E3,2.3671382E3,1.3285005E2,2.272066E3,1.664859E1,3.2005005E1,2.3351333E3,1.3163046E2,1.219596E0,2.0633206E3,2.0874551E2,1.4906385E1,1.7422038E0,3.0795006E1,1.2099999E0,1.6144186E1,2.318989E3,8.313498E1,4.8495472E1,2.0301171E3,3.3203438E1,2.0707182E2,1.6736983E0,8.12301E0,6.7833757E0,6.908604E0,9.235582E0,7.1879897E0,2.311801E3,4.073344E0,4.442213E1],"tree_param":{"num_deleted":"0","num_feature":"12","num_nodes":"35","size_leaf_vector":"1"}},{"base_weights":[6.368087E-3,-1.4014125E0,1.2249581E0,-1.4184277E0,7.242358E-2,1.4792342E0,-6.5394557E-1,-1.4271073E0,6.789734E-2,1.4968297E0,-1.2707435E0,-9.028858E-1,7.3066664E-1,-1.4307626E0,6.3777074E-2,4.0480015E-1,7.48985E-2,-7.0752524E-2,-6.846181E-1,-1.0071504E0,1.3300576E0,-2.7267748E-1,7.504387E-2,-1.7226003E-2,-7.1706764E-2,4.3300595E-4,3.297148E-2,-2.5331145E-3,-5.415525E-2,-5.2702457E-2,6.649368E-2,7.540191E-2,-7.932647E-3,-3.7269846E-2,6.509497E-2],"categories":[],"categories_nodes":[],"categories_segments":[],"categories_sizes":[],"default_left":[0,0,0,0,0,0,0,0,0,0,0,0,0,0,0,0,0,0,0,0,0,0,0,0,0,0,0,0,0,0,0,0,0,0,0],"id":8,"left_children":[1,3,5,7,-1,9,11,13,-1,15,17,19,21,23,-1,25,-1,-1,27,29,31,33,-1,-1,-1,-1,-1,-1,-1,-1,-1,-1,-1,-1,-1],"loss_changes":[8.026649E3,1.07325195E2,1.1991704E3,5.395508E1,0E0,1.08805176E2,1.03942444E2,2.3087402E1,0E0,2.128418E0,2.6504517E-1,6.0574554E1,3.6124302E1,7.3813477E0,0E0,3.635401E-1,0E0,0E0,1.1625624E0,2.8106277E1,3.360798E0,1.6539413E1,0E0,0E0,0E0,0E0,0E0,0E0,0E0,0E0,0E0,0E0,0E0,0E0,0E0],"parents":[2147483647,0,0,1,1,2,2,3,3,5,5,6,6,7,7,9,9,10,10,11,11,12,12,13,13,15,15,18,18,19,19,20,20,21,21],"right_children":[2,4,6,8,-1,10,12,14,-1,16,18,20,22,24,-1,26,-1,-1,28,30,32,34,-1,-1,-1,-1,-1,-1,-1,-1,-1,-1,-1,-1,-1],"split_conditions":[2.573424E-1,6.9904476E-1,2.912329E-1,1.3483219E1,7.242358E-2,4.679511E-3,-5.240822E-3,6.958023E-1,6.789734E-2,-1.1733325E-2,1.3005637E-1,-2.1514824E-2,-2.154614E0,-6.3413434E0,6.3777074E-2,-9.452588E-1,7.48985E-2,-7.0752524E-2,1.0091084E0,3.5845327E0,-7.668047E-2,5.3221047E-1,7.504387E-2,-1.7226003E-2,-7.1706764E-2,4.3300595E-4,3.297148E-2,-2.5331145E-3,-5.415525E-2,-5.2702457E-2,6.649368E-2,7.540191E-2,-7.932647E-3,-3.7269846E-2,6.509497E-2],"split_indices":[5,9,5,11,0,6,3,2,0,6,6,8,10,10,0,0,0,0,6,9,3,2,0,0,0,0,0,0,0,0,0,0,0,0,0],"split_type":[0,0,0,0,0,0,0,0,0,0,0,0,0,0,0,0,0,0,0,0,0,0,0,0,0,0,0,0,0,0,0,0,0,0,0],"sum_hessian":[4.6768774E3,2.1699197E3,2.5069578E3,2.1575403E3,1.23793E1,2.2083145E3,2.986433E2,2.1513008E3,6.239564E0,2.1947273E3,1.3587181E1,2.5342737E2,4.5215935E1,2.148865E3,2.4357097E0,2.6607008E0,2.1920664E3,9.768004E0,3.8191767E0,2.4264626E2,1.0781114E1,1.9916685E1,2.529925E1,6.970206E0,2.1418948E3,1.445646E0,1.2150548E0,1.9091041E0,1.9100726E0,2.3841086E2,4.235392E0,9.618237E0,1.1628766E0,1.5722946E1,4.193738E0],"tree_param":{"num_deleted":"0","num_feature":"12","num_nodes":"35","size_leaf_vector":"1"}},{"base_weights":[9.4619644E-4,-1.3690116E0,1.2677312E0,5.8796234E-2,-1.3737006E0,1.4168797E0,-1.3467493E0,-1.3919069E0,-9.724855E-1,-1.0515823E0,1.4610817E0,-1.4586554E0,-1.1182046E0,-1.4008261E0,-1.0074205E0,-1.0128002E0,5.17116E-2,-1.291013E0,8.09862E-1,7.3980474E-1,7.333008E-2,-7.3875464E-2,-2.3740258E-2,1.5313247E-1,-1.2340708E0,-7.079309E-2,-6.327065E-2,-6.8237215E-2,1.09699905E-1,-6.386611E-2,-4.1814573E-2,-6.854571E-2,1.1657288E-2,-9.81881E-3,5.779214E-2,-3.485428E-2,7.863498E-2,-5.0644945E-2,6.1630435E-2,-3.7040856E-2,-6.971204E-2],"categories":[],"categories_nodes":[],"categories_segments":[],"categories_sizes":[],"default_left":[0,0,0,0,0,0,0,0,0,0,0,0,0,0,0,0,0,0,0,0,0,0,0,0,0,0,0,0,0,0,0,0,0,0,0,0,0,0,0,0,0],"id":9,"left_children":[1,3,5,-1,7,9,11,13,15,17,19,21,23,25,27,29,-1,31,33,35,-1,-1,-1,37,39,-1,-1,-1,-1,-1,-1,-1,-1,-1,-1,-1,-1,-1,-1,-1,-1],"loss_changes":[7.914625E3,2.7761719E1,9.2589087E2,0E0,1.4625E1,2.4617725E2,1.6526184E0,5.756836E0,8.997787E0,1.8883823E1,7.686035E0,8.3631897E-1,7.0366936E0,2.3623047E0,6.127845E1,3.4534302E0,0E0,4.6852875E0,2.0289335E0,2.3535963E1,0E0,0E0,0E0,7.255561E0,2.341751E0,0E0,0E0,0E0,0E0,0E0,0E0,0E0,0E0,0E0,0E0,0E0,0E0,0E0,0E0,0E0,0E0],"parents":[2147483647,0,0,1,1,2,2,4,4,5,5,6,6,7,7,8,8,9,9,10,10,11,11,12,12,13,13,14,14,15,15,17,17,18,18,19,19,23,23,24,24],"right_children":[2,4,6,-1,8,10,12,14,16,18,20,22,24,26,28,30,-1,32,34,36,-1,-1,-1,38,40,-1,-1,-1,-1,-1,-1,-1,-1,-1,-1,-1,-1,-1,-1,-1,-1],"split_conditions":[6.2780994E-1,-1.2078108E0,7.586395E-1,5.8796234E-2,1.436895E0,-4.018405E-1,-1.8298174E-1,1.4173148E0,1.1678329E0,-2.2138724E-2,-2.58051E-1,4.8759457E-1,-1.2531302E0,3.0880716E-1,-3.5823226E-1,-9.2158014E-1,5.17116E-2,1.4295317E0,-1.059091E0,-4.0204012E-1,7.333008E-2,-7.3875464E-2,-2.3740258E-2,9.1266096E-1,-2.1514824E-2,-7.079309E-2,-6.327065E-2,-6.8237215E-2,1.09699905E-1,-6.386611E-2,-4.1814573E-2,-6.854571E-2,1.1657288E-2,-9.81881E-3,5.779214E-2,-3.485428E-2,7.863498E-2,-5.0644945E-2,6.1630435E-2,-3.7040856E-2,-6.971204E-2],"split_indices":[1,2,4,0,6,6,0,0,0,0,6,2,8,6,6,0,0,10,2,3,0,0,0,1,8,0,0,0,0,0,0,0,0,0,0,0,0,0,0,0,0],"split_type":[0,0,0,0,0,0,0,0,0,0,0,0,0,0,0,0,0,0,0,0,0,0,0,0,0,0,0,0,0,0,0,0,0,0,0,0,0,0,0,0,0],"sum_hessian":[4.5585815E3,2.190066E3,2.3685156E3,3.5683565E0,2.1864976E3,2.241124E3,1.2739152E2,2.0892244E3,9.727312E1,3.9024242E1,2.2020999E3,8.190477E1,4.5486748E1,2.039274E3,4.9950264E1,9.584294E1,1.4301765E0,3.484828E1,4.1759605E0,1.775005E1,2.1843499E3,7.987238E1,2.0323904E0,3.7724144E0,4.1714333E1,1.8269607E3,2.1231339E2,4.5450993E1,4.49927E0,3.586214E1,5.9980804E1,3.3207966E1,1.6403184E0,1.1791037E0,2.996857E0,6.5731916E0,1.1176858E1,1.8431507E0,1.9292637E0,1.1604074E1,3.011026E1],"tree_param":{"num_deleted":"0","num_feature":"12","num_nodes":"41","size_leaf_vector":"1"}},{"base_weights":[2.9193587E-3,-1.3391197E0,1.2457942E0,-1.3478236E0,-9.750003E-2,1.386812E0,-1.3046635E0,5.0561644E-2,-1.3507411E0,-2.8191182E-1,5.7355344E-2,-1.2935823E0,1.4263513E0,-1.3253635E0,-4.0153772E-1,-1.3525426E0,4.8276417E-2,4.3255523E-2,-4.50121E-1,-7.090225E-2,1.5575568E-2,5.735085E-1,7.170471E-2,-1.3410045E0,8.847716E-3,-4.928052E-2,2.9320179E-2,-6.839567E-2,-5.4250855E-2,-5.4139335E-2,-1.32953925E-2,-2.0353891E-2,7.313862E-2,-6.9560826E-2,-4.9784172E-2],"categories":[],"categories_nodes":[],"categories_segments":[],"categories_sizes":[],"default_left":[0,0,0,0,0,0,0,0,0,0,0,0,0,0,0,0,0,0,0,0,0,0,0,0,0,0,0,0,0,0,0,0,0,0,0],"id":10,"left_children":[1,3,5,7,9,11,13,-1,15,17,-1,19,21,23,25,27,-1,-1,29,-1,-1,31,-1,33,-1,-1,-1,-1,-1,-1,-1,-1,-1,-1,-1],"loss_changes":[7.383156E3,2.2868896E1,8.28343E2,1.5911621E1,3.9712908E0,2.3268994E2,1.7284088E0,0E0,1.0115723E1,3.215066E0,0E0,6.87212E0,1.3355469E1,3.0048218E0,2.969244E0,7.1921387E0,0E0,0E0,1.2772868E0,0E0,0E0,1.8892914E1,0E0,6.379547E-1,0E0,0E0,0E0,0E0,0E0,0E0,0E0,0E0,0E0,0E0,0E0],"parents":[2147483647,0,0,1,1,2,2,3,3,4,4,5,5,6,6,8,8,9,9,11,11,12,12,13,13,14,14,15,15,18,18,21,21,23,23],"right_children":[2,4,6,8,10,12,14,-1,16,18,-1,20,22,24,26,28,-1,-1,30,-1,-1,32,-1,34,-1,-1,-1,-1,-1,-1,-1,-1,-1,-1,-1],"split_conditions":[6.2780994E-1,3.9857907E0,7.586395E-1,-3.3780015E-1,2.8133035E-1,-7.741433E-1,6.511863E-1,5.0561644E-2,1.9015503E-1,-1.2300857E0,5.7355344E-2,-5.9882015E-2,-2.2600983E-1,1.2326652E0,-6.359266E-1,5.718175E-1,4.8276417E-2,4.3255523E-2,-9.2158014E-1,-7.090225E-2,1.5575568E-2,-4.3460533E-1,7.170471E-2,2.4485128E0,8.847716E-3,-4.928052E-2,2.9320179E-2,-6.839567E-2,-5.4250855E-2,-5.4139335E-2,-1.32953925E-2,-2.0353891E-2,7.313862E-2,-6.9560826E-2,-4.9784172E-2],"split_indices":[1,5,4,2,0,5,2,0,2,0,0,0,5,0,5,5,0,0,0,0,0,0,0,5,0,0,0,0,0,0,0,0,0,0,0],"split_type":[0,0,0,0,0,0,0,0,0,0,0,0,0,0,0,0,0,0,0,0,0,0,0,0,0,0,0,0,0,0,0,0,0,0,0],"sum_hessian":[4.4243877E3,2.127291E3,2.297097E3,2.1123975E3,1.4893626E1,2.1771746E3,1.1992226E2,2.1823604E0,2.110215E3,1.3645311E1,1.2483145E0,3.1188267E1,2.1459863E3,1.1677814E2,3.1441188E0,2.1089907E3,1.2242382E0,1.215273E0,1.2430038E1,2.905204E1,2.1362271E0,1.9983318E1,2.126003E3,1.1568113E2,1.0970076E0,1.9774225E0,1.1666963E0,1.9905135E3,1.184772E2,1.7030711E0,1.0726967E1,9.761545E0,1.0221772E1,9.835141E1,1.7329723E1],"tree_param":{"num_deleted":"0","num_feature":"12","num_nodes":"35","size_leaf_vector":"1"}},{"base_weights":[-1.3194032E-3,-1.3059773E0,1.2098982E0,-1.3091918E0,5.5600233E-2,1.356739E0,-1.2895327E0,-1.3176066E0,-3.2247093E-1,-1.0028394E0,1.397048E0,-1.3183703E0,4.5647126E-2,4.784591E-2,-1.3202136E0,-4.970814E-1,6.010523E-2,-6.72525E-2,6.62544E-2,5.1930314E-1,7.0177205E-2,-1.3738551E0,-3.224287E-2,-6.7524865E-2,-5.8541756E-2,-1.445317E-2,-4.2015716E-2,-3.2794274E-2,7.335319E-2,-6.934824E-2,-2.395164E-2],"categories":[],"categories_nodes":[],"categories_segments":[],"categories_sizes":[],"default_left":[0,0,0,0,0,0,0,0,0,0,0,0,0,0,0,0,0,0,0,0,0,0,0,0,0,0,0,0,0,0,0],"id":11,"left_children":[1,3,5,7,-1,9,11,13,15,17,19,21,-1,-1,23,25,-1,-1,-1,27,-1,29,-1,-1,-1,-1,-1,-1,-1,-1,-1],"loss_changes":[6.8056353E3,1.7571533E1,8.214304E2,1.6770996E1,0E0,2.0208032E2,9.107391E0,1.3438965E1,5.6120744E0,3.0477863E1,1.1101807E1,3.7195435E0,0E0,0E0,7.6987305E0,1.0143342E0,0E0,0E0,0E0,1.9707722E1,0E0,6.609192E-1,0E0,0E0,0E0,0E0,0E0,0E0,0E0,0E0,0E0],"parents":[2147483647,0,0,1,1,2,2,3,3,5,5,6,6,7,7,8,8,9,9,10,10,11,11,14,14,15,15,19,19,21,21],"right_children":[2,4,6,8,-1,10,12,14,16,18,20,22,-1,-1,24,26,-1,-1,-1,28,-1,30,-1,-1,-1,-1,-1,-1,-1,-1,-1],"split_conditions":[6.2780994E-1,-7.668047E-2,7.586395E-1,4.1330566E0,5.5600233E-2,-4.018405E-1,3.5845327E0,-1.5444674E-1,4.3251693E-1,-3.2108173E0,-2.58051E-1,1.5386919E0,4.5647126E-2,4.784591E-2,1.7938298E-1,-2.2138724E-2,6.010523E-2,-6.72525E-2,6.62544E-2,-4.0204012E-1,7.0177205E-2,1.3564532E0,-3.224287E-2,-6.7524865E-2,-5.8541756E-2,-1.445317E-2,-4.2015716E-2,-3.2794274E-2,7.335319E-2,-6.934824E-2,-2.395164E-2],"split_indices":[1,3,4,6,0,6,9,3,0,9,6,9,0,0,6,0,0,0,0,3,0,3,0,0,0,0,0,0,0,0,0],"split_type":[0,0,0,0,0,0,0,0,0,0,0,0,0,0,0,0,0,0,0,0,0,0,0,0,0,0,0,0,0,0,0],"sum_hessian":[4.3047515E3,2.0723982E3,2.232353E3,2.0701047E3,2.293475E0,2.1089124E3,1.2344072E2,2.0522678E3,1.7836971E1,3.5020676E1,2.0738916E3,1.22241585E2,1.1991322E0,1.9304874E0,2.0503372E3,1.6608719E1,1.2282517E0,3.090045E1,4.1202235E0,1.5830254E1,2.0580613E3,1.1197696E2,1.0264626E1,1.6980482E3,3.52289E2,1.1488335E1,5.1203847E0,7.2046785E0,8.625575E0,1.0981808E2,2.1588855E0],"tree_param":{"num_deleted":"0","num_feature":"12","num_nodes":"31","size_leaf_vector":"1"}},{"base_weights":[-1.3761848E-3,-1.2811713E0,1.1809437E0,5.5236947E-2,-1.285699E0,1.3302188E0,-1.2289656E0,-1.2941322E0,-1.8224701E-1,-1.2875187E0,1.3682655E0,-1.3213797E0,-3.915883E-1,-1.2962797E0,4.9733993E-2,3.403899E-2,-3.0928397E-1,-6.7559E-2,-6.7971194E-1,5.420198E-1,6.8833075E-2,-1.3400662E0,-4.7739962E-1,5.0956994E-2,-3.1439126E-2,-6.570363E-2,-5.4110605E-2,-2.4231136E-2,-1.2808873E-2,-5.2350827E-2,1.3603217E-2,-2.3290193E-2,7.2384566E-2,-2.1708827E-2,-6.740203E-2,-4.6626713E-2,1.7576229E-2],"categories":[],"categories_nodes":[],"categories_segments":[],"categories_sizes":[],"default_left":[0,0,0,0,0,0,0,0,0,0,0,0,0,0,0,0,0,0,0,0,0,0,0,0,0,0,0,0,0,0,0,0,0,0,0,0,0],"id":12,"left_children":[1,3,5,-1,7,9,11,13,15,17,19,21,23,25,-1,-1,27,-1,29,31,-1,33,35,-1,-1,-1,-1,-1,-1,-1,-1,-1,-1,-1,-1,-1,-1],"loss_changes":[6.3776113E3,2.32854E1,7.8977344E2,0E0,1.8566895E1,2.0728369E2,9.411942E0,1.1144775E1,2.0183914E0,2.4539948E-1,1.33671875E1,1.1760864E0,5.3837585E0,6.209961E0,0E0,0E0,1.609528E-2,0E0,1.9852338E0,2.0860136E1,0E0,2.2441101E-1,1.854784E0,0E0,0E0,0E0,0E0,0E0,0E0,0E0,0E0,0E0,0E0,0E0,0E0,0E0,0E0],"parents":[2147483647,0,0,1,1,2,2,4,4,5,5,6,6,7,7,8,8,9,9,10,10,11,11,12,12,13,13,16,16,18,18,19,19,21,21,22,22],"right_children":[2,4,6,-1,8,10,12,14,16,18,20,22,24,26,-1,-1,28,-1,30,32,-1,34,36,-1,-1,-1,-1,-1,-1,-1,-1,-1,-1,-1,-1,-1,-1],"split_conditions":[6.2780994E-1,-1.2078108E0,7.586395E-1,5.5236947E-2,3.9857907E0,-8.183981E-1,1.5386919E0,1.9015503E-1,2.651343E0,-3.568787E0,-2.58051E-1,6.511863E-1,-1.2531302E0,3.3196348E-1,4.9733993E-2,3.403899E-2,4.1330566E0,-6.7559E-2,-1.1631949E0,-2.910268E0,6.8833075E-2,-8.940184E-1,-6.697977E-1,5.0956994E-2,-3.1439126E-2,-6.570363E-2,-5.4110605E-2,-2.4231136E-2,-1.2808873E-2,-5.2350827E-2,1.3603217E-2,-2.3290193E-2,7.2384566E-2,-2.1708827E-2,-6.740203E-2,-4.6626713E-2,1.7576229E-2],"split_indices":[1,2,4,0,5,5,9,2,6,9,6,2,8,5,0,0,6,0,2,9,0,5,5,0,0,0,0,0,0,0,0,0,0,0,0,0,0],"split_type":[0,0,0,0,0,0,0,0,0,0,0,0,0,0,0,0,0,0,0,0,0,0,0,0,0,0,0,0,0,0,0,0,0,0,0,0,0],"sum_hessian":[4.2128545E3,2.0229935E3,2.1898608E3,3.37153E0,2.019622E3,2.06255E3,1.27310844E2,2.0041326E3,1.54894E1,2.9077578E1,2.0334724E3,1.1413659E2,1.3174256E1,2.0026873E3,1.4453772E0,1.4281743E0,1.4061226E1,2.5213682E1,3.863896E0,2.1115187E1,2.0123573E3,1.1108917E2,3.0474114E0,1.4217366E0,1.175252E1,1.8442568E3,1.5843039E2,1.3798783E0,1.2681347E1,2.715773E0,1.1481228E0,1.0223851E1,1.08913355E1,1.4531847E0,1.09635994E2,1.8865671E0,1.1608443E0],"tree_param":{"num_deleted":"0","num_feature":"12","num_nodes":"37","size_leaf_vector":"1"}},{"base_weights":[1.9513667E-3,-1.2467986E0,1.1642516E0,5.488677E-2,-1.251541E0,-6.731369E-1,1.3205432E0,-1.2694316E0,-7.791684E-1,-8.171079E-1,6.424653E-2,6.746269E-2,-1.9891202E-1,-1.2782618E0,-8.6090183E-1,-8.41203E-1,7.023605E-2,-1.075992E0,4.21535E-2,-7.087945E-1,1.0411662E0,-6.538751E-2,-5.949601E-2,-6.1572563E-2,1.13019265E-1,-5.9218287E-2,-3.184409E-2,-5.943761E-2,2.9003197E-2,-2.4485117E-2,4.3186076E-2,4.755479E-2,-4.25096E-2,5.4326984E-3,6.253653E-2],"categories":[],"categories_nodes":[],"categories_segments":[],"categories_sizes":[],"default_left":[0,0,0,0,0,0,0,0,0,0,0,0,0,0,0,0,0,0,0,0,0,0,0,0,0,0,0,0,0,0,0,0,0,0,0],"id":13,"left_children":[1,3,5,-1,7,9,11,13,15,17,-1,-1,19,21,23,25,-1,27,29,31,33,-1,-1,-1,-1,-1,-1,-1,-1,-1,-1,-1,-1,-1,-1],"loss_changes":[5.9283564E3,2.3266846E1,6.083889E2,0E0,1.5621582E1,4.798783E1,8.533545E1,5.725342E0,1.1249577E1,3.4682884E1,0E0,0E0,2.4154205E1,3.2634277E0,5.262848E1,4.3562393E0,0E0,2.3041245E1,1.659635E1,7.1076765E0,2.05194E0,0E0,0E0,0E0,0E0,0E0,0E0,0E0,0E0,0E0,0E0,0E0,0E0,0E0,0E0],"parents":[2147483647,0,0,1,1,2,2,4,4,5,5,6,6,7,7,8,8,9,9,12,12,13,13,14,14,15,15,17,17,18,18,19,19,20,20],"right_children":[2,4,6,-1,8,10,12,14,16,18,-1,-1,20,22,24,26,-1,28,30,32,34,-1,-1,-1,-1,-1,-1,-1,-1,-1,-1,-1,-1,-1,-1],"split_conditions":[6.2780994E-1,-3.3780015E-1,-2.7930933E-1,5.488677E-2,1.7683345E0,1.3483219E1,2.5010544E-1,1.4173148E0,1.1678329E0,1.928962E-1,6.424653E-2,6.746269E-2,-6.7631453E-1,-2.9045022E-1,-3.5823226E-1,4.8290405E-1,7.023605E-2,-2.3383608E0,-3.0608147E-1,-1.8908037E-1,-3.6683065E-1,-6.538751E-2,-5.949601E-2,-6.1572563E-2,1.13019265E-1,-5.9218287E-2,-3.184409E-2,-5.943761E-2,2.9003197E-2,-2.4485117E-2,4.3186076E-2,4.755479E-2,-4.25096E-2,5.4326984E-3,6.253653E-2],"split_indices":[1,2,9,0,6,11,6,0,0,5,0,0,10,5,6,5,0,9,0,2,3,0,0,0,0,0,0,0,0,0,0,0,0,0,0],"split_type":[0,0,0,0,0,0,0,0,0,0,0,0,0,0,0,0,0,0,0,0,0,0,0,0,0,0,0,0,0,0,0,0,0,0,0],"sum_hessian":[4.082515E3,1.9680317E3,2.1144832E3,3.507577E0,1.9645242E3,1.6550255E2,1.9489806E3,1.8912094E3,7.3314804E1,1.5470987E2,1.0792676E1,1.9129468E3,3.6033764E1,1.849113E3,4.20964E1,7.188761E1,1.4271928E0,1.1869609E2,3.6013783E1,2.5838276E1,1.0195486E1,1.3760015E3,4.731116E2,3.8170395E1,3.9260027E0,2.5038387E1,4.6849228E1,1.1139353E2,7.3025637E0,2.2106627E1,1.3907154E1,1.578743E0,2.4259533E1,2.149444E0,8.046042E0],"tree_param":{"num_deleted":"0","num_feature":"12","num_nodes":"35","size_leaf_vector":"1"}},{"base_weights":[7.9683546E-4,-1.2192214E0,1.1456494E0,5.2207977E-2,-1.2233356E0,-6.342396E-1,1.2983962E0,-1.2433658E0,-7.281913E-1,-9.509446E-1,2.1743792E-1,6.631594E-2,-2.1836323E-1,-1.2452847E0,4.6092972E-2,-7.927826E-1,5.9690274E-2,-1.0750843E0,7.809465E-1,-4.0568545E-1,1.0736462E0,-6.6553366E-1,1.0501496E0,-6.267565E-2,-4.4454906E-2,-5.863414E-2,-2.823771E-2,-5.681271E-2,5.1756274E-2,6.6100694E-2,-8.993267E-3,-4.0176377E-2,1.8990273E-2,6.9228016E-2,1.1396646E-2,4.8522584E-2,-4.1117497E-2,7.954241E-3,6.090961E-2],"categories":[],"categories_nodes":[],"categories_segments":[],"categories_sizes":[],"default_left":[0,0,0,0,0,0,0,0,0,0,0,0,0,0,0,0,0,0,0,0,0,0,0,0,0,0,0,0,0,0,0,0,0,0,0,0,0,0,0],"id":14,"left_children":[1,3,5,-1,7,9,11,13,15,17,19,-1,21,23,-1,25,-1,27,29,31,33,35,37,-1,-1,-1,-1,-1,-1,-1,-1,-1,-1,-1,-1,-1,-1,-1,-1],"loss_changes":[5.5420347E3,1.9164795E1,5.5733936E2,0E0,1.8115479E1,4.402594E1,8.014453E1,8.800781E0,1.0502964E1,2.6339424E1,2.4363815E1,0E0,2.0519602E1,4.2800293E0,0E0,5.84153E0,0E0,1.5516281E1,4.662935E0,8.643898E0,4.7239265E0,7.5830297E0,1.2279797E0,0E0,0E0,0E0,0E0,0E0,0E0,0E0,0E0,0E0,0E0,0E0,0E0,0E0,0E0,0E0,0E0],"parents":[2147483647,0,0,1,1,2,2,4,4,5,5,6,6,7,7,8,8,9,9,10,10,12,12,13,13,15,15,17,17,18,18,19,19,20,20,21,21,22,22],"right_children":[2,4,6,-1,8,10,12,14,16,18,20,-1,22,24,-1,26,-1,28,30,32,34,36,38,-1,-1,-1,-1,-1,-1,-1,-1,-1,-1,-1,-1,-1,-1,-1,-1],"split_conditions":[6.2780994E-1,-3.3780015E-1,-2.7930933E-1,5.2207977E-2,1.7683345E0,-1.4937307E-1,2.5010544E-1,-1.8052643E-2,1.1678329E0,-2.3383608E0,-2.654053E-1,6.631594E-2,-6.7631453E-1,1.4173148E0,4.6092972E-2,-9.2158014E-1,5.9690274E-2,1.3483219E1,1.0219665E0,-9.193478E-1,1.0125227E0,-3.222196E0,-3.6683065E-1,-6.267565E-2,-4.4454906E-2,-5.863414E-2,-2.823771E-2,-5.681271E-2,5.1756274E-2,6.6100694E-2,-8.993267E-3,-4.0176377E-2,1.8990273E-2,6.9228016E-2,1.1396646E-2,4.8522584E-2,-4.1117497E-2,7.954241E-3,6.090961E-2],"split_indices":[1,2,9,0,6,6,6,2,0,9,0,0,10,0,0,0,0,11,1,7,1,7,3,0,0,0,0,0,0,0,0,0,0,0,0,0,0,0,0],"split_type":[0,0,0,0,0,0,0,0,0,0,0,0,0,0,0,0,0,0,0,0,0,0,0,0,0,0,0,0,0,0,0,0,0,0,0,0,0,0,0],"sum_hessian":[3.9658328E3,1.9198595E3,2.0459734E3,3.024843E0,1.9168347E3,1.6145534E2,1.884518E3,1.8408553E3,7.597931E1,1.1760585E2,4.384949E1,1.8505757E3,3.394225E1,1.8396498E3,1.2055289E0,7.407736E1,1.9019476E0,1.1009371E2,7.5121336E0,2.5683773E1,1.8165716E1,2.5447098E1,8.495153E0,1.7956498E3,4.4000034E1,2.6231842E1,4.784552E1,1.0744081E2,2.652903E0,4.5653105E0,2.9468231E0,1.7033527E1,8.650247E0,1.2816694E1,5.3490214E0,1.7720208E0,2.3675076E1,1.6567492E0,6.838404E0],"tree_param":{"num_deleted":"0","num_feature":"12","num_nodes":"39","size_leaf_vector":"1"}},{"base_weights":[1.1660111E-4,-1.177387E0,7.3529893E-1,-1.2039351E0,6.41924E-2,1.2866738E0,-9.247418E-1,-1.2163658E0,5.998638E-2,1.4683879E-2,6.4386666E-2,-9.954363E-1,1.0365132E0,-1.2245816E0,6.1806154E-2,-1.0463839E0,5.439175E-1,-2.2698313E-1,6.384291E-2,6.188302E-2,-6.148661E-2,-5.325665E-2,8.2607046E-2,9.5199764E-4,6.259053E-2,-4.6687897E-2,3.781475E-2],"categories":[],"categories_nodes":[],"categories_segments":[],"categories_sizes":[],"default_left":[0,0,0,0,0,0,0,0,0,0,0,0,0,0,0,0,0,0,0,0,0,0,0,0,0,0,0],"id":15,"left_children":[1,3,5,7,-1,9,11,13,-1,-1,-1,15,17,19,-1,21,23,25,-1,-1,-1,-1,-1,-1,-1,-1,-1],"loss_changes":[3.3126123E3,9.765198E1,2.1574324E3,4.495337E1,0E0,1.4829102E0,8.255063E1,3.0703125E1,0E0,0E0,0E0,4.511548E1,6.6504326E0,1.9838867E1,0E0,2.959436E1,6.981776E0,3.622635E0,0E0,0E0,0E0,0E0,0E0,0E0,0E0,0E0,0E0],"parents":[2147483647,0,0,1,1,2,2,3,3,5,5,6,6,7,7,11,11,12,12,13,13,15,15,16,16,17,17],"right_children":[2,4,6,8,-1,10,12,14,-1,-1,-1,16,18,20,-1,22,24,26,-1,-1,-1,-1,-1,-1,-1,-1,-1],"split_conditions":[-3.1716423E-3,6.9904476E-1,4.679511E-3,1.3483219E1,6.41924E-2,-1.7710156E0,8.5230744E-1,2.9046407E0,5.998638E-2,1.4683879E-2,6.4386666E-2,1.5386919E0,-9.0283746E-1,-3.8536274E0,6.1806154E-2,1.1678329E0,-1.8715149E0,-2.6710472E0,6.384291E-2,6.188302E-2,-6.148661E-2,-5.325665E-2,8.2607046E-2,9.5199764E-4,6.259053E-2,-4.6687897E-2,3.781475E-2],"split_indices":[6,9,6,11,0,0,7,7,0,0,0,9,3,7,0,0,10,8,0,0,0,0,0,0,0,0,0],"split_type":[0,0,0,0,0,0,0,0,0,0,0,0,0,0,0,0,0,0,0,0,0,0,0,0,0,0,0],"sum_hessian":[3.8246023E3,1.4698376E3,2.3547646E3,1.4546578E3,1.5179836E1,1.7678173E3,5.869474E2,1.447665E3,6.992719E0,2.1808057E0,1.7656365E3,5.6700195E2,1.9945442E1,1.4433306E3,4.3344803E0,5.491472E2,1.785473E1,3.1965783E0,1.6748863E1,2.5133514E0,1.4408173E3,5.459593E2,3.1879783E0,1.0842384E1,7.0123453E0,1.8890802E0,1.307498E0],"tree_param":{"num_deleted":"0","num_feature":"12","num_nodes":"27","size_leaf_vector":"1"}},{"base_weights":[-3.366807E-3,-1.1817565E0,1.1061388E0,-1.1855847E0,5.387056E-2,1.2439691E0,-1.1687018E0,4.056722E-2,-5.938663E-2,-4.4488248E-1,1.2879301E0,-1.2366372E0,-2.3990633E-2,-7.5426555E-1,6.5575145E-2,5.13766E-1,6.447508E-2,-6.28962E-2,-3.369994E-1,5.5114657E-2,-4.299413E-2,-4.2457055E-2,5.9539843E-2,-4.158252E-2,2.1356253E-2],"categories":[],"categories_nodes":[],"categories_segments":[],"categories_sizes":[],"default_left":[0,0,0,0,0,0,0,0,0,0,0,0,0,0,0,0,0,0,0,0,0,0,0,0,0],"id":16,"left_children":[1,3,5,7,-1,9,11,-1,-1,13,15,17,-1,19,-1,21,-1,-1,23,-1,-1,-1,-1,-1,-1],"loss_changes":[4.847786E3,1.682837E1,6.002429E2,8.665527E0,0E0,1.3429614E2,4.536667E0,0E0,0E0,2.622331E1,1.4731445E0,1.4746857E0,0E0,8.814312E0,0E0,5.826794E0,0E0,0E0,1.7376807E0,0E0,0E0,0E0,0E0,0E0,0E0],"parents":[2147483647,0,0,1,1,2,2,3,3,5,5,6,6,9,9,10,10,11,11,13,13,15,15,18,18],"right_children":[2,4,6,8,-1,10,12,-1,-1,14,16,18,-1,20,-1,22,-1,-1,24,-1,-1,-1,-1,-1,-1],"split_conditions":[6.2780994E-1,-7.668047E-2,7.586395E-1,-2.345517E0,5.387056E-2,-3.2108173E0,1.5386919E0,4.056722E-2,-5.938663E-2,2.834235E-1,-2.910268E0,6.511863E-1,-2.3990633E-2,-3.8536274E0,6.5575145E-2,-2.0778215E0,6.447508E-2,-6.28962E-2,1.031349E0,5.5114657E-2,-4.299413E-2,-4.2457055E-2,5.9539843E-2,-4.158252E-2,2.1356253E-2],"split_indices":[1,3,4,2,0,9,9,0,0,3,9,2,0,7,0,2,0,0,1,0,0,0,0,0,0],"split_type":[0,0,0,0,0,0,0,0,0,0,0,0,0,0,0,0,0,0,0,0,0,0,0,0,0],"sum_hessian":[3.7058743E3,1.7971173E3,1.9087571E3,1.7945516E3,2.5657058E0,1.8001415E3,1.0861555E2,1.5233884E0,1.7930282E3,4.543776E1,1.7547037E3,9.8142044E1,1.0473505E1,3.911781E1,6.31995E0,4.218904E0,1.7504849E3,9.54845E1,2.6575487E0,1.5976299E0,3.752018E1,1.3158331E0,2.9030707E0,1.5595886E0,1.0979601E0],"tree_param":{"num_deleted":"0","num_feature":"12","num_nodes":"25","size_leaf_vector":"1"}},{"base_weights":[6.002098E-4,-1.1471757E0,1.0896126E0,-1.1927589E0,-7.690112E-1,-5.1382023E-1,1.2326878E0,-1.2017326E0,-6.663765E-1,-8.1631476E-1,7.413607E-2,-6.7020386E-1,6.1948057E-2,-2.7176505E-1,1.2621976E0,-6.102362E-2,-1.1210297E0,-1.1647702E0,1.2444115E-1,-1.0186948E0,-4.2623752E-1,-7.5497E-1,6.1822362E-2,-7.3754454E-1,1.0460206E0,2.0018E-1,6.338002E-2,-4.0139396E-2,-5.6691736E-2,-6.0027044E-2,-8.991611E-3,-5.49294E-2,1.3950112E-2,-4.5015953E-2,1.9947907E-3,5.9287827E-2,-4.0577985E-2,6.1080147E-2,-5.0535332E-2,-7.3252744E-3,6.917941E-2,-2.9218817E-2,5.1692028E-2],"categories":[],"categories_nodes":[],"categories_segments":[],"categories_sizes":[],"default_left":[0,0,0,0,0,0,0,0,0,0,0,0,0,0,0,0,0,0,0,0,0,0,0,0,0,0,0,0,0,0,0,0,0,0,0,0,0,0,0,0,0,0,0],"id":17,"left_children":[1,3,5,7,9,11,13,15,17,19,-1,21,-1,23,25,-1,27,29,-1,31,33,35,-1,37,39,41,-1,-1,-1,-1,-1,-1,-1,-1,-1,-1,-1,-1,-1,-1,-1,-1,-1],"loss_changes":[4.4804126E3,2.9166016E1,4.2259766E2,6.547119E0,2.1506256E1,4.2326023E1,7.532544E1,9.433594E-1,4.743354E1,1.4349541E1,0E0,2.3501045E1,0E0,2.1219578E1,9.251221E0,0E0,3.13385E-1,6.697731E-1,0E0,1.3015244E1,1.4552339E1,1.5713058E1,0E0,1.4721128E1,3.8714256E0,6.865034E0,0E0,0E0,0E0,0E0,0E0,0E0,0E0,0E0,0E0,0E0,0E0,0E0,0E0,0E0,0E0,0E0,0E0],"parents":[2147483647,0,0,1,1,2,2,3,3,4,4,5,5,6,6,7,7,8,8,9,9,11,11,13,13,14,14,16,16,17,17,19,19,20,20,21,21,23,23,24,24,25,25],"right_children":[2,4,6,8,10,12,14,16,18,20,-1,22,-1,24,26,-1,28,30,-1,32,34,36,-1,38,40,42,-1,-1,-1,-1,-1,-1,-1,-1,-1,-1,-1,-1,-1,-1,-1,-1,-1],"split_conditions":[6.2780994E-1,2.573424E-1,5.888178E-2,1.5404146E0,1.0480156E0,1.3483219E1,1.928962E-1,-2.9045022E-1,-3.6768338E-1,-4.2918122E-1,7.413607E-2,6.958023E-1,6.1948057E-2,-7.365928E-2,-2.6710472E0,-6.102362E-2,-2.6915798E-1,-7.412982E-1,1.2444115E-1,3.9857907E0,5.718175E-1,-4.2353163E0,6.1822362E-2,-5.9719753E-1,-1.059091E0,-7.542155E-1,6.338002E-2,-4.0139396E-2,-5.6691736E-2,-6.0027044E-2,-8.991611E-3,-5.49294E-2,1.3950112E-2,-4.5015953E-2,1.9947907E-3,5.9287827E-2,-4.0577985E-2,6.1080147E-2,-5.0535332E-2,-7.3252744E-3,6.917941E-2,-2.9218817E-2,5.1692028E-2],"split_indices":[1,5,7,0,0,11,5,5,6,0,0,2,0,0,8,0,5,5,0,5,5,8,0,0,2,2,0,0,0,0,0,0,0,0,0,0,0,0,0,0,0,0,0],"split_type":[0,0,0,0,0,0,0,0,0,0,0,0,0,0,0,0,0,0,0,0,0,0,0,0,0,0,0,0,0,0,0,0,0,0,0,0,0,0,0,0,0,0,0],"sum_hessian":[3.5824958E3,1.7441635E3,1.8383325E3,1.5546185E3,1.8954494E2,1.5038528E2,1.6879471E3,1.5272982E3,2.7320335E1,1.8626933E2,3.2756038E0,1.3863396E2,1.1751326E1,3.2314068E1,1.655633E3,1.2280225E3,2.9927576E2,2.4138302E1,3.1820338E0,1.2157978E2,6.468955E1,1.3331122E2,5.322734E0,2.4200548E1,8.113518E0,8.572429E0,1.6470607E3,1.4039821E1,2.8523596E2,2.308115E1,1.0571519E0,1.146733E2,6.906477E0,3.160955E1,3.3079998E1,3.2117467E0,1.3009947E2,2.5364904E0,2.1664059E1,1.9148654E0,6.1986527E0,4.570327E0,4.002102E0],"tree_param":{"num_deleted":"0","num_feature":"12","num_nodes":"43","size_leaf_vector":"1"}},{"base_weights":[4.2281644E-3,-1.1350459E0,1.0797834E0,-1.1775283E0,-7.8370225E-1,-5.781064E-1,1.227752E0,-1.1867273E0,-6.2816113E-1,-8.283693E-1,7.102762E-2,-8.977541E-1,2.2973138E-1,6.2640004E-2,-2.1798536E-2,-1.1883941E0,-5.548668E-1,-1.1004472E0,1.1347522E-1,-9.8982024E-1,-5.130957E-1,-9.717865E-1,5.832802E-2,-2.4950087E-1,1.007276E0,-4.5944485E-1,5.316029E-2,-5.9860438E-2,-5.3339522E-2,1.4789197E-2,-4.0511638E-2,-5.895842E-2,1.5583453E-2,-5.300322E-2,6.5677622E-3,6.498336E-2,-3.0332107E-2,-5.249728E-2,1.9067518E-2,2.7662754E-2,-2.8932432E-2,6.50143E-2,4.1659195E-3,5.110928E-2,-3.2909792E-2],"categories":[],"categories_nodes":[],"categories_segments":[],"categories_sizes":[],"default_left":[0,0,0,0,0,0,0,0,0,0,0,0,0,0,0,0,0,0,0,0,0,0,0,0,0,0,0,0,0,0,0,0,0,0,0,0,0,0,0,0,0,0,0,0,0],"id":18,"left_children":[1,3,5,7,9,11,13,15,17,19,-1,21,23,-1,25,27,29,31,-1,33,35,37,-1,39,41,43,-1,-1,-1,-1,-1,-1,-1,-1,-1,-1,-1,-1,-1,-1,-1,-1,-1,-1,-1],"loss_changes":[4.2762236E3,2.4371826E1,4.4107373E2,6.88501E0,1.9469994E1,3.8362965E1,5.161792E1,9.0356445E-1,3.9435516E1,8.793808E0,0E0,1.734507E1,1.6158176E1,0E0,1.6336662E1,3.083496E-1,1.4952319E0,3.0222988E0,0E0,9.5722885E0,1.1635319E1,1.12884445E1,0E0,7.5102906E0,4.3523293E0,7.8817525E0,0E0,0E0,0E0,0E0,0E0,0E0,0E0,0E0,0E0,0E0,0E0,0E0,0E0,0E0,0E0,0E0,0E0,0E0,0E0],"parents":[2147483647,0,0,1,1,2,2,3,3,4,4,5,5,6,6,7,7,8,8,9,9,11,11,12,12,14,14,15,15,16,16,17,17,19,19,20,20,21,21,23,23,24,24,25,25],"right_children":[2,4,6,8,10,12,14,16,18,20,-1,22,24,-1,26,28,30,32,-1,34,36,38,-1,40,42,44,-1,-1,-1,-1,-1,-1,-1,-1,-1,-1,-1,-1,-1,-1,-1,-1,-1,-1,-1],"split_conditions":[6.2780994E-1,2.573424E-1,-2.7930933E-1,1.5404146E0,1.0480156E0,1.928962E-1,2.2118293E-1,2.651343E0,-3.6768338E-1,-4.2918122E-1,7.102762E-2,6.958023E-1,-2.654053E-1,6.2640004E-2,-6.7631453E-1,3.5188898E-1,-7.4688785E-2,-7.0442563E-1,1.1347522E-1,3.9857907E0,-4.1160136E-1,-2.3383608E0,5.832802E-2,-2.910268E0,-1.3264507E0,-1.2531302E0,5.316029E-2,-5.9860438E-2,-5.3339522E-2,1.4789197E-2,-4.0511638E-2,-5.895842E-2,1.5583453E-2,-5.300322E-2,6.5677622E-3,6.498336E-2,-3.0332107E-2,-5.249728E-2,1.9067518E-2,2.7662754E-2,-2.8932432E-2,6.50143E-2,4.1659195E-3,5.110928E-2,-3.2909792E-2],"split_indices":[1,5,9,0,0,5,6,6,6,0,0,2,0,0,10,6,5,5,0,5,0,9,0,9,9,8,0,0,0,0,0,0,0,0,0,0,0,0,0,0,0,0,0,0,0],"split_type":[0,0,0,0,0,0,0,0,0,0,0,0,0,0,0,0,0,0,0,0,0,0,0,0,0,0,0,0,0,0,0,0,0,0,0,0,0,0,0,0,0,0,0,0,0],"sum_hessian":[3.4877908E3,1.6936981E3,1.7940927E3,1.5088999E3,1.8479826E2,1.4676628E2,1.6473264E3,1.4829088E3,2.5991098E1,1.8173969E2,3.0585835E0,1.0507757E2,4.1688713E1,1.6149512E3,3.2375256E1,1.4781288E3,4.7800207E0,2.2881851E1,3.1092482E0,1.18775475E2,6.2964214E1,1.0195057E2,3.127002E0,2.6212194E1,1.5476519E1,2.3480667E1,8.894588E0,1.369978E3,1.0815069E2,1.0671057E0,3.7129152E0,2.1829866E1,1.0519847E0,1.1182395E2,6.9515176E0,2.4570808E0,6.0507133E1,9.659516E1,5.3554106E0,7.4242864E0,1.8787909E1,1.1440994E1,4.0355244E0,2.287201E0,2.1193466E1],"tree_param":{"num_deleted":"0","num_feature":"12","num_nodes":"45","size_leaf_vector":"1"}},{"base_weights":[2.6852253E-3,-1.1142813E0,1.0595052E0,-1.1596279E0,-7.3325306E-1,1.1973951E0,-1.0909119E0,-1.1688929E0,-6.426922E-1,-7.8405595E-1,7.005712E-2,-1.0605683E0,1.2341505E0,-1.1886561E0,-3.1242663E-1,-5.9445333E-2,-5.4211613E-2,-5.8380004E-2,1.929384E0,-9.7788215E-1,-4.1827172E-1,-6.1253067E-2,4.0784195E-2,6.1862123E-1,6.2039804E-2,-1.2011776E0,-4.4428557E-1,-2.6484681E-2,4.5271125E-2,2.8167149E-2,1.1055445E-1,-5.2381396E-2,1.0733507E-2,-4.530191E-2,2.5697553E-3,-1.3745869E-2,6.719128E-2,-6.0540855E-2,-2.2369917E-2,-3.4922432E-2,2.191036E-3],"categories":[],"categories_nodes":[],"categories_segments":[],"categories_sizes":[],"default_left":[0,0,0,0,0,0,0,0,0,0,0,0,0,0,0,0,0,0,0,0,0,0,0,0,0,0,0,0,0,0,0,0,0,0,0,0,0,0,0,0,0],"id":19,"left_children":[1,3,5,7,9,11,13,15,17,19,-1,21,23,25,27,-1,-1,-1,29,31,33,-1,-1,35,-1,37,39,-1,-1,-1,-1,-1,-1,-1,-1,-1,-1,-1,-1,-1,-1],"loss_changes":[3.9583386E3,2.7317871E1,5.1222253E2,6.2181396E0,2.0194138E1,1.3573096E2,7.568962E0,1.1311035E0,3.984311E1,1.1831711E1,0E0,9.172115E0,5.753418E0,3.2711792E-1,3.9185815E0,0E0,0E0,0E0,7.1546173E-1,9.54924E0,1.4146177E1,0E0,0E0,1.2695782E1,0E0,1.1395264E-1,4.1702598E-1,0E0,0E0,0E0,0E0,0E0,0E0,0E0,0E0,0E0,0E0,0E0,0E0,0E0,0E0],"parents":[2147483647,0,0,1,1,2,2,3,3,4,4,5,5,6,6,7,7,8,8,9,9,11,11,12,12,13,13,14,14,18,18,19,19,20,20,23,23,25,25,26,26],"right_children":[2,4,6,8,10,12,14,16,18,20,-1,22,24,26,28,-1,-1,-1,30,32,34,-1,-1,36,-1,38,40,-1,-1,-1,-1,-1,-1,-1,-1,-1,-1,-1,-1,-1,-1],"split_conditions":[6.2780994E-1,2.573424E-1,7.586395E-1,1.5404146E0,1.0480156E0,-8.183981E-1,1.5386919E0,-2.9045022E-1,-7.1834344E-1,-4.2918122E-1,7.005712E-2,-2.2138724E-2,-2.2600983E-1,6.511863E-1,-1.5957089E-1,-5.9445333E-2,-5.4211613E-2,-5.8380004E-2,-6.6025746E-1,3.9857907E0,5.718175E-1,-6.1253067E-2,4.0784195E-2,-4.3460533E-1,6.2039804E-2,1.1678329E0,1.031349E0,-2.6484681E-2,4.5271125E-2,2.8167149E-2,1.1055445E-1,-5.2381396E-2,1.0733507E-2,-4.530191E-2,2.5697553E-3,-1.3745869E-2,6.719128E-2,-6.0540855E-2,-2.2369917E-2,-3.4922432E-2,2.191036E-3],"split_indices":[1,5,4,0,0,5,9,5,5,0,0,0,5,2,0,0,0,0,5,5,5,0,0,0,0,0,1,0,0,0,0,0,0,0,0,0,0,0,0,0,0],"split_type":[0,0,0,0,0,0,0,0,0,0,0,0,0,0,0,0,0,0,0,0,0,0,0,0,0,0,0,0,0,0,0,0,0,0,0,0,0,0,0,0,0],"sum_hessian":[3.351295E3,1.6292576E3,1.7220374E3,1.4541534E3,1.751042E2,1.6186865E3,1.0335082E2,1.4273108E3,2.6842587E1,1.7165123E2,3.452984E0,2.5481043E1,1.5932056E3,9.135383E1,1.1996997E1,1.1438593E3,2.834515E2,2.2746534E1,4.096052E0,1.11104454E2,6.054677E1,2.3746254E1,1.7347887E0,1.8022186E1,1.5751833E3,8.923901E1,2.1148152E0,1.0660244E1,1.3367531E0,1.2131274E0,2.882925E0,1.0508041E2,6.02405E0,2.9245312E1,3.1301456E1,8.352194E0,9.669992E0,8.751354E1,1.725474E0,1.1072966E0,1.0075188E0],"tree_param":{"num_deleted":"0","num_feature":"12","num_nodes":"41","size_leaf_vector":"1"}},{"base_weights":[4.3334286E-3,-1.0984106E0,1.0412626E0,-1.1443917E0,-7.2465444E-1,1.1817467E0,-1.0879861E0,-1.1512276E0,-7.453865E-1,-7.779003E-1,6.9028124E-2,-1.0595534E0,1.2185189E0,-1.1974236E0,-1.9790426E-1,-5.838045E-2,-1.0669407E0,-1.1199871E0,9.989607E-2,-8.0547446E-1,5.1838078E-2,-6.0376227E-2,3.0691108E-2,3.8125795E-1,6.1256822E-2,-1.2173376E0,-6.643542E-3,-2.0353831E-2,4.4618215E-2,-3.7069812E-2,-5.402088E-2,-5.9605855E-2,1.7507769E-3,-4.3058522E-2,-5.67756E-3,-2.8696248E-2,6.305297E-2,-6.1718583E-2,-4.446629E-3],"categories":[],"categories_nodes":[],"categories_segments":[],"categories_sizes":[],"default_left":[0,0,0,0,0,0,0,0,0,0,0,0,0,0,0,0,0,0,0,0,0,0,0,0,0,0,0,0,0,0,0,0,0,0,0,0,0,0,0],"id":20,"left_children":[1,3,5,7,9,11,13,15,17,19,-1,21,23,25,27,-1,29,31,-1,33,-1,-1,-1,35,-1,37,-1,-1,-1,-1,-1,-1,-1,-1,-1,-1,-1,-1,-1],"loss_changes":[3.6812488E3,2.598352E1,4.9759363E2,2.9265137E0,2.0537903E1,1.2961353E2,9.817123E0,6.352539E-1,2.9170435E1,9.341278E0,0E0,7.096733E0,8.023193E0,1.7825928E0,3.213737E0,0E0,2.2247314E-1,2.01622E0,0E0,6.3770294E0,0E0,0E0,0E0,1.20419445E1,0E0,1.6184235E0,0E0,0E0,0E0,0E0,0E0,0E0,0E0,0E0,0E0,0E0,0E0,0E0,0E0],"parents":[2147483647,0,0,1,1,2,2,3,3,4,4,5,5,6,6,7,7,8,8,9,9,11,11,12,12,13,13,14,14,16,16,17,17,19,19,23,23,25,25],"right_children":[2,4,6,8,10,12,14,16,18,20,-1,22,24,26,28,-1,30,32,-1,34,-1,-1,-1,36,-1,38,-1,-1,-1,-1,-1,-1,-1,-1,-1,-1,-1,-1,-1],"split_conditions":[6.2780994E-1,2.573424E-1,7.586395E-1,1.5404146E0,1.0480156E0,-8.183981E-1,1.5386919E0,-2.2600983E-1,-6.4902455E-1,-7.668047E-2,6.9028124E-2,-2.2138724E-2,-3.6257917E-1,1.2942151E0,1.0498713E0,-5.838045E-2,-2.0155433E-1,-7.1834344E-1,9.989607E-2,3.9857907E0,5.1838078E-2,-6.0376227E-2,3.0691108E-2,-2.939117E-1,6.1256822E-2,6.511863E-1,-6.643542E-3,-2.0353831E-2,4.4618215E-2,-3.7069812E-2,-5.402088E-2,-5.9605855E-2,1.7507769E-3,-4.3058522E-2,-5.67756E-3,-2.8696248E-2,6.305297E-2,-6.1718583E-2,-4.446629E-3],"split_indices":[1,5,4,0,0,5,9,5,5,3,0,0,5,0,4,0,5,5,0,5,0,0,0,3,0,2,0,0,0,0,0,0,0,0,0,0,0,0,0],"split_type":[0,0,0,0,0,0,0,0,0,0,0,0,0,0,0,0,0,0,0,0,0,0,0,0,0,0,0,0,0,0,0,0,0,0,0,0,0,0,0],"sum_hessian":[3.2173733E3,1.5591759E3,1.6581974E3,1.3865365E3,1.726394E2,1.5559816E3,1.0221588E2,1.3613281E3,2.5208263E1,1.6899559E2,3.6438055E0,2.4667347E1,1.5313142E3,9.071676E1,1.1499126E1,1.1290435E3,2.322847E2,2.2700266E1,2.5079985E0,1.6701392E2,1.9816824E0,2.2919077E1,1.7482704E0,1.2468086E1,1.5188461E3,8.891005E1,1.8067074E0,1.0173859E1,1.3252679E0,1.1460542E1,2.2082416E2,2.1335714E1,1.3645513E0,1.5434537E2,1.2668546E1,6.144639E0,6.3234477E0,8.749534E1,1.414714E0],"tree_param":{"num_deleted":"0","num_feature":"12","num_nodes":"39","size_leaf_vector":"1"}},{"base_weights":[3.2462366E-3,-1.0752379E0,1.0308824E0,-1.1212851E0,-7.0988375E-1,-5.5016327E-1,1.1800216E0,-1.1288704E0,-6.770686E-1,-7.635771E-1,6.7694664E-2,-8.5409665E-1,2.1675791E-1,6.0492285E-2,-1.5743385E-1,-5.7659518E-2,-1.0280969E0,-5.6467768E-2,1.5105036E0,-8.996514E-1,-3.854622E-1,-9.7655165E-1,5.86317E-1,-3.2332662E-1,9.640528E-1,-4.1360757E-1,4.815977E-2,-5.178023E-2,-2.3773637E-2,1.23348385E-2,9.1513455E-2,-4.918174E-2,4.201328E-3,-4.372331E-2,1.0499175E-2,-5.1561296E-2,4.520723E-2,5.8818966E-2,-1.8069813E-2,2.6294997E-2,-3.302559E-2,6.31279E-2,2.8276239E-3,4.128859E-2,-3.235761E-2],"categories":[],"categories_nodes":[],"categories_segments":[],"categories_sizes":[],"default_left":[0,0,0,0,0,0,0,0,0,0,0,0,0,0,0,0,0,0,0,0,0,0,0,0,0,0,0,0,0,0,0,0,0,0,0,0,0,0,0,0,0,0,0,0,0],"id":21,"left_children":[1,3,5,7,9,11,13,15,17,19,-1,21,23,-1,25,-1,27,-1,29,31,33,35,37,39,41,43,-1,-1,-1,-1,-1,-1,-1,-1,-1,-1,-1,-1,-1,-1,-1,-1,-1,-1,-1],"loss_changes":[3.4560896E3,2.4802002E1,3.7717822E2,3.782837E0,2.0207413E1,3.242827E1,5.840808E1,2.0627441E0,2.6595284E1,8.363075E0,0E0,1.8082275E1,1.6479254E1,0E0,9.791726E0,0E0,6.148987E-1,0E0,1.4631062E0,1.0304596E1,1.3737295E1,1.0378616E1,5.1241045E0,7.2201653E0,4.5490723E0,8.445713E0,0E0,0E0,0E0,0E0,0E0,0E0,0E0,0E0,0E0,0E0,0E0,0E0,0E0,0E0,0E0,0E0,0E0,0E0,0E0],"parents":[2147483647,0,0,1,1,2,2,3,3,4,4,5,5,6,6,7,7,8,8,9,9,11,11,12,12,14,14,16,16,18,18,19,19,20,20,21,21,22,22,23,23,24,24,25,25],"right_children":[2,4,6,8,10,12,14,16,18,20,-1,22,24,-1,26,-1,28,-1,30,32,34,36,38,40,42,44,-1,-1,-1,-1,-1,-1,-1,-1,-1,-1,-1,-1,-1,-1,-1,-1,-1,-1,-1],"split_conditions":[6.2780994E-1,2.573424E-1,-2.7930933E-1,1.5404146E0,1.0480156E0,1.928962E-1,2.5010544E-1,-2.9045022E-1,-7.1834344E-1,-1.2143188E-1,6.7694664E-2,-2.3383608E0,-2.654053E-1,6.0492285E-2,5.888178E-2,-5.7659518E-2,2.651343E0,-5.6467768E-2,-3.7679586E-1,3.9857907E0,5.718175E-1,1.3483219E1,1.0219665E0,-2.910268E0,1.0125227E0,-2.0293415E0,4.815977E-2,-5.178023E-2,-2.3773637E-2,1.23348385E-2,9.1513455E-2,-4.918174E-2,4.201328E-3,-4.372331E-2,1.0499175E-2,-5.1561296E-2,4.520723E-2,5.8818966E-2,-1.8069813E-2,2.6294997E-2,-3.302559E-2,6.31279E-2,2.8276239E-3,4.128859E-2,-3.235761E-2],"split_indices":[1,5,9,0,0,5,6,5,5,0,0,9,0,0,7,0,6,0,6,5,5,11,1,9,1,7,0,0,0,0,0,0,0,0,0,0,0,0,0,0,0,0,0,0,0],"split_type":[0,0,0,0,0,0,0,0,0,0,0,0,0,0,0,0,0,0,0,0,0,0,0,0,0,0,0,0,0,0,0,0,0,0,0,0,0,0,0,0,0,0,0,0,0],"sum_hessian":[3.1164004E3,1.520558E3,1.5958424E3,1.3485281E3,1.7202994E2,1.3732741E2,1.458515E3,1.3243723E3,2.4155794E1,1.6828177E2,3.7481785E0,9.8269295E1,3.905811E1,1.4267942E3,3.1720774E1,1.0584817E3,2.6589062E2,2.0418047E1,3.7377484E0,1.2273361E2,4.554815E1,9.086643E1,7.402867E0,2.3001684E1,1.6056425E1,2.6332197E1,5.388575E0,2.614645E2,4.426109E0,1.1124628E0,2.6252856E0,1.130793E2,9.654317E0,2.4752121E1,2.0796028E1,8.8738365E1,2.128062E0,4.413602E0,2.989265E0,6.37815E0,1.6623533E1,1.1787804E1,4.2686224E0,3.773118E0,2.255908E1],"tree_param":{"num_deleted":"0","num_feature":"12","num_nodes":"45","size_leaf_vector":"1"}},{"base_weights":[-1.6816884E-3,-1.0656207E0,9.527239E-1,-1.0781581E0,5.586795E-2,1.1765289E0,-3.985208E-1,-1.0864389E0,5.4995906E-2,1.194429E0,-7.4400336E-1,-5.356144E-1,9.311491E-1,-1.0967721E0,4.223544E-1,4.9281603E-1,5.976667E-2,-5.2361675E-2,2.8742973E-3,-7.3747903E-1,4.0407445E-2,5.9074976E-2,-4.4705573E-2,5.740289E-2,-5.505233E-2,-4.109486E-2,6.7661166E-2,2.7371193E-3,3.6484867E-2,3.3253256E-2,-4.0305164E-2,2.2905868E-2,-4.1594457E-2,-1.8007038E-2,2.9342199E-2],"categories":[],"categories_nodes":[],"categories_segments":[],"categories_sizes":[],"default_left":[0,0,0,0,0,0,0,0,0,0,0,0,0,0,0,0,0,0,0,0,0,0,0,0,0,0,0,0,0,0,0,0,0,0,0],"id":22,"left_children":[1,3,5,7,-1,9,11,13,-1,15,17,19,21,23,25,27,-1,-1,29,31,33,-1,-1,-1,-1,-1,-1,-1,-1,-1,-1,-1,-1,-1,-1],"loss_changes":[3.0526755E3,4.011206E1,4.7971252E2,2.6697021E1,0E0,4.7635376E1,4.168262E1,2.2432251E1,0E0,2.65625E-1,2.986371E0,2.3918556E1,1.0872574E1,1.4696289E1,1.3049995E1,3.1662893E-1,0E0,0E0,3.1080508E0,1.755893E1,1.2087827E1,0E0,0E0,0E0,0E0,0E0,0E0,0E0,0E0,0E0,0E0,0E0,0E0,0E0,0E0],"parents":[2147483647,0,0,1,1,2,2,3,3,5,5,6,6,7,7,9,9,10,10,11,11,12,12,13,13,14,14,15,15,18,18,19,19,20,20],"right_children":[2,4,6,8,-1,10,12,14,-1,16,18,20,22,24,26,28,-1,-1,30,32,34,-1,-1,-1,-1,-1,-1,-1,-1,-1,-1,-1,-1,-1,-1],"split_conditions":[2.573424E-1,6.9904476E-1,2.912329E-1,1.4215693E0,5.586795E-2,4.679511E-3,8.5230744E-1,1.5706911E0,5.4995906E-2,-1.1733325E-2,1.3005637E-1,-1.2143188E-1,7.586395E-1,-3.8536274E0,-8.309681E-1,-9.452588E-1,5.976667E-2,-5.2361675E-2,1.0091084E0,-4.7796596E-2,1.159589E0,5.9074976E-2,-4.4705573E-2,5.740289E-2,-5.505233E-2,-4.109486E-2,6.7661166E-2,2.7371193E-3,3.6484867E-2,3.3253256E-2,-4.0305164E-2,2.2905868E-2,-4.1594457E-2,-1.8007038E-2,2.9342199E-2],"split_indices":[5,9,5,3,0,6,7,7,0,6,6,0,4,7,3,0,0,0,6,2,5,0,0,0,0,0,0,0,0,0,0,0,0,0,0],"split_type":[0,0,0,0,0,0,0,0,0,0,0,0,0,0,0,0,0,0,0,0,0,0,0,0,0,0,0,0,0,0,0,0,0,0,0],"sum_hessian":[3.0042908E3,1.4205706E3,1.5837202E3,1.4129615E3,7.6090055E0,1.3587941E3,2.2492607E2,1.4081094E3,4.852183E0,1.3466211E3,1.2172977E1,2.0444434E2,2.0481739E1,1.3988025E3,9.306876E0,2.436149E0,1.344185E3,8.371873E0,3.8011043E0,1.5118265E2,5.326169E1,1.8321484E1,2.1602557E0,2.149939E0,1.3966525E3,4.0330887E0,5.2737875E0,1.2870517E0,1.1490972E0,2.1880026E0,1.6131016E0,1.07824745E1,1.4040018E2,3.09302E1,2.2331488E1],"tree_param":{"num_deleted":"0","num_feature":"12","num_nodes":"35","size_leaf_vector":"1"}},{"base_weights":[1.3759442E-3,-1.0491691E0,9.3672407E-1,-1.0629344E0,5.3079236E-1,1.1648622E0,-3.9248204E-1,5.9905596E-2,-1.0701733E0,-4.571178E-2,6.357591E-2,1.1829305E0,-8.214075E-1,-5.379524E-1,9.7994137E-1,-1.0774169E0,4.9815282E-2,1.772393E-2,5.9192877E-2,-5.3691413E-2,-1.637843E-1,5.788573E-1,-6.2358975E-1,5.8886737E-2,-4.1284114E-2,-5.5315148E-2,-4.7751047E-2,2.11055E-2,-3.9599676E-2,6.590202E-2,-5.396986E-2,5.6755375E-2,-3.4173865E-2],"categories":[],"categories_nodes":[],"categories_segments":[],"categories_sizes":[],"default_left":[0,0,0,0,0,0,0,0,0,0,0,0,0,0,0,0,0,0,0,0,0,0,0,0,0,0,0,0,0,0,0,0,0],"id":23,"left_children":[1,3,5,7,9,11,13,-1,15,-1,-1,17,19,21,23,25,-1,-1,-1,-1,27,29,31,-1,-1,-1,-1,-1,-1,-1,-1,-1,-1],"loss_changes":[2.8534187E3,3.031018E1,4.6628577E2,2.3480103E1,1.4520846E1,4.803528E1,4.5603966E1,0E0,2.1317871E1,0E0,0E0,5.7873535E-1,1.8844528E0,1.994719E1,8.826925E0,3.710083E0,0E0,0E0,0E0,0E0,2.0357425E0,1.9935946E1,2.0859673E1,0E0,0E0,0E0,0E0,0E0,0E0,0E0,0E0,0E0,0E0],"parents":[2147483647,0,0,1,1,2,2,3,3,4,4,5,5,6,6,8,8,11,11,12,12,13,13,14,14,15,15,20,20,21,21,22,22],"right_children":[2,4,6,8,10,12,14,-1,16,-1,-1,18,20,22,24,26,-1,-1,-1,-1,28,30,32,-1,-1,-1,-1,-1,-1,-1,-1,-1,-1],"split_conditions":[2.573424E-1,1.5706911E0,2.912329E-1,-3.8536274E0,-9.7214746E-1,4.679511E-3,8.5230744E-1,5.9905596E-2,1.4215693E0,-4.571178E-2,6.357591E-2,-1.1733325E-2,1.3005637E-1,-4.7796596E-2,1.0498713E0,-2.9045022E-1,4.9815282E-2,1.772393E-2,5.9192877E-2,-5.3691413E-2,1.0091084E0,7.586395E-1,-1.6282011E0,5.8886737E-2,-4.1284114E-2,-5.5315148E-2,-4.7751047E-2,2.11055E-2,-3.9599676E-2,6.590202E-2,-5.396986E-2,5.6755375E-2,-3.4173865E-2],"split_indices":[5,7,5,7,3,6,7,0,3,0,0,6,6,2,4,5,0,0,0,0,6,4,8,0,0,0,0,0,0,0,0,0,0],"split_type":[0,0,0,0,0,0,0,0,0,0,0,0,0,0,0,0,0,0,0,0,0,0,0,0,0,0,0,0,0,0,0,0,0],"sum_hessian":[2.9018726E3,1.3667136E3,1.5351589E3,1.3552334E3,1.1480156E1,1.3103763E3,2.2478258E2,3.799963E0,1.3514335E3,3.8111055E0,7.6690507E0,1.2989646E3,1.141179E1,2.0378986E2,2.0992733E1,1.3471897E3,4.2437344E0,1.8804843E0,1.2970841E3,7.7891335E0,3.6226566E0,1.410357E1,1.8968628E2,1.9233572E1,1.7591611E0,1.0834513E3,2.6373843E2,2.0442123E0,1.5784442E0,9.897035E0,4.206536E0,5.6552873E0,1.8403099E2],"tree_param":{"num_deleted":"0","num_feature":"12","num_nodes":"33","size_leaf_vector":"1"}},{"base_weights":[-1.9958112E-3,-1.0359393E0,9.211828E-1,-1.0512183E0,5.6937415E-2,1.1529075E0,-3.94222E-1,-1.0579537E0,4.8862603E-2,5.8625866E-2,-7.98048E-1,-5.2924806E-1,9.01636E-1,5.932147E-2,-1.0629408E0,-4.968996E-2,-3.4764925E-1,9.986676E-1,-5.9166425E-1,5.7860713E-2,-4.4324473E-2,-5.3596836E-2,1.1830097E-2,7.1001947E-3,-4.1992374E-2,6.1527617E-2,5.2418643E-5,5.22192E-2,-3.249435E-2],"categories":[],"categories_nodes":[],"categories_segments":[],"categories_sizes":[],"default_left":[0,0,0,0,0,0,0,0,0,0,0,0,0,0,0,0,0,0,0,0,0,0,0,0,0,0,0,0,0],"id":24,"left_children":[1,3,5,7,-1,9,11,13,-1,-1,15,17,19,-1,21,-1,23,25,27,-1,-1,-1,-1,-1,-1,-1,-1,-1,-1],"loss_changes":[2.6720447E3,4.5072388E1,4.5124207E2,1.8956299E1,0E0,4.9050903E1,3.936555E1,1.5900391E1,0E0,0E0,8.104E-1,1.984623E1,1.0779621E1,0E0,1.5516357E1,0E0,1.4471667E0,1.9179411E0,1.921659E1,0E0,0E0,0E0,0E0,0E0,0E0,0E0,0E0,0E0,0E0],"parents":[2147483647,0,0,1,1,2,2,3,3,5,5,6,6,7,7,10,10,11,11,12,12,14,14,16,16,17,17,18,18],"right_children":[2,4,6,8,-1,10,12,14,-1,-1,16,18,20,-1,22,-1,24,26,28,-1,-1,-1,-1,-1,-1,-1,-1,-1,-1],"split_conditions":[2.573424E-1,6.9904476E-1,2.912329E-1,1.4215693E0,5.6937415E-2,4.679511E-3,8.5230744E-1,-3.8536274E0,4.8862603E-2,5.8625866E-2,1.3005637E-1,-3.3780015E-1,1.0498713E0,5.932147E-2,1.5706911E0,-4.968996E-2,1.0091084E0,5.888178E-2,-1.6282011E0,5.7860713E-2,-4.4324473E-2,-5.3596836E-2,1.1830097E-2,7.1001947E-3,-4.1992374E-2,6.1527617E-2,5.2418643E-5,5.22192E-2,-3.249435E-2],"split_indices":[5,9,5,3,0,6,7,7,0,0,6,2,4,0,7,0,6,7,8,0,0,0,0,0,0,0,0,0,0],"split_type":[0,0,0,0,0,0,0,0,0,0,0,0,0,0,0,0,0,0,0,0,0,0,0,0,0,0,0,0,0],"sum_hessian":[2.7973757E3,1.3194705E3,1.4779054E3,1.3107777E3,8.692673E0,1.2566539E3,2.2125145E2,1.3069166E3,3.8611298E0,1.2445436E3,1.21104145E1,2.009087E2,2.0342743E1,2.372335E0,1.3045443E3,7.6005816E0,4.5098333E0,7.2964053E0,1.936123E2,1.8107462E1,2.235281E0,1.2957498E3,8.794537E0,2.617429E0,1.8924042E0,5.730849E0,1.5655565E0,6.0713334E0,1.8754097E2],"tree_param":{"num_deleted":"0","num_feature":"12","num_nodes":"29","size_leaf_vector":"1"}},{"base_weights":[3.864215E-3,-1.0172918E0,9.160695E-1,-1.0294528E0,5.3967018E-2,1.1449386E0,-3.7559754E-1,-1.0391201E0,3.390875E-1,1.1622616E0,-7.2696465E-1,-5.0655574E-1,9.1960514E-1,5.7659853E-2,-1.0443416E0,-4.864524E-2,6.52576E-2,1.2198894E-2,5.817423E-2,-4.8393443E-2,-1.15092136E-1,-7.3337287E-1,-1.8323217E-2,1.3974243E-1,5.6327727E-2,-5.2444704E-2,4.4478342E-2,-3.9166484E-2,2.3883794E-2,5.855701E-2,-3.8724862E-2,6.0653407E-2,-8.375811E-3,-2.4988487E-2,4.061873E-2],"categories":[],"categories_nodes":[],"categories_segments":[],"categories_sizes":[],"default_left":[0,0,0,0,0,0,0,0,0,0,0,0,0,0,0,0,0,0,0,0,0,0,0,0,0,0,0,0,0,0,0,0,0,0,0],"id":25,"left_children":[1,3,5,7,-1,9,11,13,15,17,19,21,23,-1,25,-1,-1,-1,-1,-1,27,29,31,33,-1,-1,-1,-1,-1,-1,-1,-1,-1,-1,-1],"loss_changes":[2.5029487E3,3.343628E1,4.1997974E2,1.7035156E1,0E0,3.9946533E1,3.6826736E1,1.5540527E1,1.3436208E1,1.0582275E0,1.6090889E0,2.1617332E1,3.076851E0,0E0,1.1937622E1,0E0,0E0,0E0,0E0,0E0,2.1298273E0,1.1350861E1,1.1774548E1,2.7048743E0,0E0,0E0,0E0,0E0,0E0,0E0,0E0,0E0,0E0,0E0,0E0],"parents":[2147483647,0,0,1,1,2,2,3,3,5,5,6,6,7,7,8,8,9,9,10,10,11,11,12,12,14,14,20,20,21,21,22,22,23,23],"right_children":[2,4,6,8,-1,10,12,14,16,18,20,22,24,-1,26,-1,-1,-1,-1,-1,28,30,32,34,-1,-1,-1,-1,-1,-1,-1,-1,-1,-1,-1],"split_conditions":[2.573424E-1,6.9904476E-1,2.912329E-1,1.5706911E0,5.3967018E-2,4.679511E-3,8.5230744E-1,-3.8536274E0,-8.309681E-1,-1.1733325E-2,1.3005637E-1,-1.8298174E-1,-9.0283746E-1,5.7659853E-2,1.3483219E1,-4.864524E-2,6.52576E-2,1.2198894E-2,5.817423E-2,-4.8393443E-2,-4.7516948E-1,-1.2647094E-1,-1.3264507E0,-2.6710472E0,5.6327727E-2,-5.2444704E-2,4.4478342E-2,-3.9166484E-2,2.3883794E-2,5.855701E-2,-3.8724862E-2,6.0653407E-2,-8.375811E-3,-2.4988487E-2,4.061873E-2],"split_indices":[5,9,5,7,0,6,7,7,3,6,6,0,3,0,11,0,0,0,0,0,0,6,9,8,0,0,0,0,0,0,0,0,0,0,0],"split_type":[0,0,0,0,0,0,0,0,0,0,0,0,0,0,0,0,0,0,0,0,0,0,0,0,0,0,0,0,0,0,0,0,0,0,0],"sum_hessian":[2.6849968E3,1.2667903E3,1.4182067E3,1.259991E3,6.799283E0,1.2048365E3,2.1337006E2,1.251392E3,8.598986E0,1.1941646E3,1.0671994E1,1.9433018E2,1.9039871E1,2.450995E0,1.248941E3,3.643603E0,4.9553823E0,1.8549143E0,1.1923097E3,7.239765E0,3.432229E0,1.3234491E2,6.198528E1,4.3442736E0,1.4695598E1,1.2464645E3,2.4766035E0,1.4622884E0,1.9699405E0,2.2165387E0,1.3012837E2,5.9278493E0,5.605743E1,2.3587043E0,1.9855692E0],"tree_param":{"num_deleted":"0","num_feature":"12","num_nodes":"35","size_leaf_vector":"1"}},{"base_weights":[5.649313E-3,-9.91671E-1,9.8167837E-1,-1.050105E0,-5.761818E-1,1.116647E0,-9.697229E-1,-1.0580143E0,-5.471778E-1,-6.2348914E-1,6.635748E-2,-7.9815644E-1,1.1570042E0,-1.0804993E0,-1.6293298E-1,-1.0710671E0,-8.920487E-1,-5.224107E-2,1.5890982E0,-7.009797E-1,1.700401E-1,-9.970039E-1,5.076784E-2,6.974473E-1,5.8060717E-2,-1.1041888E0,4.0599983E-3,-1.8096572E-2,4.1446608E-2,-5.5103917E-2,-5.160382E-2,4.8283502E-2,-4.9933277E-2,2.5621926E-2,9.5749125E-2,-4.476952E-2,-1.6678438E-2,2.445065E-2,-1.27589945E-2,-5.6110542E-2,1.2898135E-2,-2.0000434E-2,6.126461E-2,-5.5684377E-2,-1.22107435E-2],"categories":[],"categories_nodes":[],"categories_segments":[],"categories_sizes":[],"default_left":[0,0,0,0,0,0,0,0,0,0,0,0,0,0,0,0,0,0,0,0,0,0,0,0,0,0,0,0,0,0,0,0,0,0,0,0,0,0,0,0,0,0,0,0,0],"id":26,"left_children":[1,3,5,7,9,11,13,15,17,19,-1,21,23,25,27,29,31,-1,33,35,37,39,-1,41,-1,43,-1,-1,-1,-1,-1,-1,-1,-1,-1,-1,-1,-1,-1,-1,-1,-1,-1,-1,-1],"loss_changes":[2.5225305E3,3.0513794E1,3.460266E2,3.8861084E0,1.5256767E1,9.561987E1,7.4439163E0,1.4361572E0,2.2338541E1,9.776081E0,0E0,1.034725E1,1.5129395E0,2.1478653E0,2.564133E0,9.423828E-2,1.8093285E1,0E0,4.4729233E-1,9.934845E0,2.1289616E0,4.034378E0,0E0,8.254074E0,0E0,3.272934E-1,0E0,0E0,0E0,0E0,0E0,0E0,0E0,0E0,0E0,0E0,0E0,0E0,0E0,0E0,0E0,0E0,0E0,0E0,0E0],"parents":[2147483647,0,0,1,1,2,2,3,3,4,4,5,5,6,6,7,7,8,8,9,9,11,11,12,12,13,13,14,14,15,15,16,16,18,18,19,19,20,20,21,21,23,23,25,25],"right_children":[2,4,6,8,10,12,14,16,18,20,-1,22,24,26,28,30,32,-1,34,36,38,40,-1,42,-1,44,-1,-1,-1,-1,-1,-1,-1,-1,-1,-1,-1,-1,-1,-1,-1,-1,-1,-1,-1],"split_conditions":[6.2780994E-1,2.573424E-1,7.586395E-1,1.5404146E0,1.0480156E0,-6.7871773E-1,1.5386919E0,3.5188898E-1,-7.1834344E-1,3.9857907E0,6.635748E-2,-3.2108173E0,-2.2600983E-1,1.2942151E0,1.0498713E0,-3.3734635E-1,4.795058E-1,-5.224107E-2,-6.4902455E-1,-4.2918122E-1,-4.1160136E-1,-5.9882015E-2,5.076784E-2,-6.23442E-1,5.8060717E-2,1.3564532E0,4.0599983E-3,-1.8096572E-2,4.1446608E-2,-5.5103917E-2,-5.160382E-2,4.8283502E-2,-4.9933277E-2,2.5621926E-2,9.5749125E-2,-4.476952E-2,-1.6678438E-2,2.445065E-2,-1.27589945E-2,-5.6110542E-2,1.2898135E-2,-2.0000434E-2,6.126461E-2,-5.5684377E-2,-1.22107435E-2],"split_indices":[1,5,4,0,0,5,9,6,5,5,0,9,5,0,4,6,6,0,5,0,0,0,0,3,0,3,0,0,0,0,0,0,0,0,0,0,0,0,0,0,0,0,0,0,0],"split_type":[0,0,0,0,0,0,0,0,0,0,0,0,0,0,0,0,0,0,0,0,0,0,0,0,0,0,0,0,0,0,0,0,0,0,0,0,0,0,0,0,0,0,0,0,0],"sum_hessian":[2.5894272E3,1.2807365E3,1.3086908E3,1.1214849E3,1.5925163E2,1.2244308E3,8.425995E1,1.103034E3,1.845079E1,1.5604553E2,3.2060926E0,2.488633E1,1.1995444E3,7.378908E1,1.0470872E1,1.0175525E3,8.5481606E1,1.5379147E1,3.071644E0,1.4226915E2,1.3776388E1,2.2832983E1,2.0533473E0,1.2402598E1,1.1871418E3,7.2362946E1,1.4261297E0,9.250115E0,1.2207559E0,5.515854E2,4.659671E2,4.2022986E0,8.127931E1,1.3114191E0,1.760225E0,9.209908E1,5.0170063E1,7.785888E0,5.9905005E0,2.0857801E1,1.975181E0,4.106615E0,8.295983E0,7.12806E1,1.0823464E0],"tree_param":{"num_deleted":"0","num_feature":"12","num_nodes":"45","size_leaf_vector":"1"}},{"base_weights":[8.346116E-3,-9.7778887E-1,9.789265E-1,-1.0110329E0,-4.098562E-1,-4.463356E-1,1.1196425E0,-1.0159239E0,4.9203247E-2,-5.2793235E-1,-6.314588E-4,-5.64146E-1,5.432914E-2,5.7423115E-2,-4.62495E-2,-1.048025E0,-8.284498E-1,-3.2850367E-1,-6.5797955E-1,-6.4836925E-1,5.1945593E-2,-2.8257608E-1,5.1072683E-2,3.4077134E-2,-5.253399E-2,-3.3007015E-2,-5.047979E-2,-2.7604938E-2,-3.7012137E-3,-4.8383627E-2,-2.9164124E-2,-3.608131E-2,5.7032652E-2,-4.1516405E-2,1.1832455E-2],"categories":[],"categories_nodes":[],"categories_segments":[],"categories_sizes":[],"default_left":[0,0,0,0,0,0,0,0,0,0,0,0,0,0,0,0,0,0,0,0,0,0,0,0,0,0,0,0,0,0,0,0,0,0,0],"id":27,"left_children":[1,3,5,7,9,11,13,15,-1,17,-1,19,-1,-1,21,23,25,27,29,31,-1,33,-1,-1,-1,-1,-1,-1,-1,-1,-1,-1,-1,-1,-1],"loss_changes":[2.395621E3,2.3026123E1,2.5348523E2,1.2437744E1,3.2923107E0,2.1212116E1,3.863855E1,6.171753E0,0E0,1.1894016E0,0E0,1.5063614E1,0E0,0E0,7.5210056E0,5.285034E0,4.6932907E0,1.2899313E0,1.7136002E-1,1.41749E1,0E0,7.093795E0,0E0,0E0,0E0,0E0,0E0,0E0,0E0,0E0,0E0,0E0,0E0,0E0,0E0],"parents":[2147483647,0,0,1,1,2,2,3,3,4,4,5,5,6,6,7,7,9,9,11,11,14,14,15,15,16,16,17,17,18,18,19,19,21,21],"right_children":[2,4,6,8,10,12,14,16,-1,18,-1,20,-1,-1,22,24,26,28,30,32,-1,34,-1,-1,-1,-1,-1,-1,-1,-1,-1,-1,-1,-1,-1],"split_conditions":[6.2780994E-1,1.436895E0,-2.7930933E-1,-7.668047E-2,4.1330566E0,1.3483219E1,2.69598E-1,1.7938298E-1,4.9203247E-2,2.1898499E0,-6.314588E-4,2.9046407E0,5.432914E-2,5.7423115E-2,3.7304443E-1,-2.4644928E0,8.221624E-1,1.7683345E0,5.888178E-2,6.958023E-1,5.1945593E-2,1.5386919E0,5.1072683E-2,3.4077134E-2,-5.253399E-2,-3.3007015E-2,-5.047979E-2,-2.7604938E-2,-3.7012137E-3,-4.8383627E-2,-2.9164124E-2,-3.608131E-2,5.7032652E-2,-4.1516405E-2,1.1832455E-2],"split_indices":[1,6,9,3,6,11,6,6,0,6,0,7,0,0,3,2,6,6,7,2,0,9,0,0,0,0,0,0,0,0,0,0,0,0,0],"split_type":[0,0,0,0,0,0,0,0,0,0,0,0,0,0,0,0,0,0,0,0,0,0,0,0,0,0,0,0,0,0,0,0,0,0,0],"sum_hessian":[2.500939E3,1.2405254E3,1.2604137E3,1.1711893E3,6.933613E1,1.1306336E2,1.1473502E3,1.1688148E3,2.3744793E0,5.3194855E1,1.6141275E1,1.05581055E2,7.4823103E0,1.1196875E3,2.7662722E1,9.940189E2,1.7479591E2,2.2388258E1,3.0806597E1,1.00876625E2,4.704429E0,2.3251541E1,4.41118E0,1.1315409E0,9.928873E2,9.301576E1,8.178016E1,1.1294748E1,1.109351E1,3.6634314E0,2.7143166E1,9.748158E1,3.3950415E0,1.1023369E1,1.2228172E1],"tree_param":{"num_deleted":"0","num_feature":"12","num_nodes":"35","size_leaf_vector":"1"}},{"base_weights":[3.0345577E-3,-9.8705363E-1,8.876525E-1,-1.0016401E0,5.3809475E-2,1.1163634E0,-3.2124802E-1,-1.0084789E0,4.8439596E-2,1.1366142E0,-7.29827E-1,-5.702646E-1,2.9737827E-1,-1.0174791E0,2.9858643E-1,1.4935306E-2,5.6868058E-2,-4.648083E-2,-3.1256875E-1,-6.447645E-1,5.2291222E-2,-3.641279E-1,6.1874783E-1,4.9115773E-2,-5.1075198E-2,-4.4795718E-2,5.573959E-2,1.0187E-2,-4.124705E-2,-3.697369E-2,1.3330619E-2,6.1570372E-2,-3.1869043E-2,2.018164E-2,7.421239E-2],"categories":[],"categories_nodes":[],"categories_segments":[],"categories_sizes":[],"default_left":[0,0,0,0,0,0,0,0,0,0,0,0,0,0,0,0,0,0,0,0,0,0,0,0,0,0,0,0,0,0,0,0,0,0,0],"id":28,"left_children":[1,3,5,7,-1,9,11,13,-1,15,17,19,21,23,25,-1,-1,-1,27,29,-1,31,33,-1,-1,-1,-1,-1,-1,-1,-1,-1,-1,-1,-1],"loss_changes":[2.0967354E3,3.5074707E1,3.499264E2,1.6099243E1,0E0,4.0586426E1,3.127453E1,1.3465576E1,0E0,3.190918E-1,7.2202873E-1,1.8048874E1,1.2684687E1,9.948975E0,9.2123165E0,0E0,0E0,0E0,1.6070404E0,1.2157776E1,0E0,9.414126E0,6.81386E0,0E0,0E0,0E0,0E0,0E0,0E0,0E0,0E0,0E0,0E0,0E0,0E0],"parents":[2147483647,0,0,1,1,2,2,3,3,5,5,6,6,7,7,9,9,10,10,11,11,12,12,13,13,14,14,18,18,19,19,21,21,22,22],"right_children":[2,4,6,8,-1,10,12,14,-1,16,18,20,22,24,26,-1,-1,-1,28,30,-1,32,34,-1,-1,-1,-1,-1,-1,-1,-1,-1,-1,-1,-1],"split_conditions":[2.573424E-1,6.9904476E-1,2.912329E-1,1.4215693E0,5.3809475E-2,4.679511E-3,-1.2143188E-1,1.5706911E0,4.8439596E-2,-8.748711E-2,1.3005637E-1,4.5421496E-1,5.718175E-1,-3.8536274E0,-1.103707E0,1.4935306E-2,5.6868058E-2,-4.648083E-2,1.0091084E0,1.5386919E0,5.2291222E-2,4.679511E-3,6.7871636E-1,4.9115773E-2,-5.1075198E-2,-4.4795718E-2,5.573959E-2,1.0187E-2,-4.124705E-2,-3.697369E-2,1.3330619E-2,6.1570372E-2,-3.1869043E-2,2.018164E-2,7.421239E-2],"split_indices":[5,9,5,3,0,6,0,7,0,6,6,2,5,7,2,0,0,0,6,9,0,6,0,0,0,0,0,0,0,0,0,0,0,0,0],"split_type":[0,0,0,0,0,0,0,0,0,0,0,0,0,0,0,0,0,0,0,0,0,0,0,0,0,0,0,0,0,0,0,0,0,0,0],"sum_hessian":[2.3919436E3,1.1286322E3,1.2633114E3,1.1212201E3,7.4121175E0,1.0623944E3,2.0091698E2,1.1178286E3,3.3914428E0,1.0512477E3,1.11467285E1,1.4330884E2,5.7608143E1,1.1104042E3,7.4245267E0,1.2934889E0,1.0499541E3,6.7072697E0,4.439459E0,1.3756813E2,5.740701E0,1.8792555E1,3.881559E1,1.7421063E0,1.108662E3,2.9741936E0,4.450333E0,2.5112627E0,1.9281964E0,1.2478884E2,1.2779298E1,2.2351203E0,1.6557436E1,3.2263126E1,6.55246E0],"tree_param":{"num_deleted":"0","num_feature":"12","num_nodes":"35","size_leaf_vector":"1"}},{"base_weights":[-2.1429607E-3,-9.602922E-1,9.5640486E-1,-1.0218898E0,-5.363597E-1,1.0960857E0,-9.369506E-1,-1.033228E0,-3.987811E-1,-8.1961495E-1,-6.775519E-2,-8.8851345E-1,1.1304206E0,-1.050673E0,-8.673189E-3,-1.0852456E0,-9.804093E-1,-5.0885923E-2,1.7810658E0,-8.750605E-1,-3.5760824E-2,-4.0063548E-1,5.560465E-1,-5.480757E-2,4.6052407E-2,5.443845E-1,5.684313E-2,-5.419112E-1,-1.0846108E0,-5.4441392E-2,-2.5653575E-2,-7.722927E-4,-4.9794998E-2,2.8376488E-2,1.0299637E-1,4.9870512E-3,-4.5064062E-2,-3.5369154E-2,2.0056235E-2,1.0178566E-2,-4.6572726E-2,5.2667677E-2,-4.247328E-3,-2.2448434E-2,6.474834E-2,-4.7040448E-2,3.6198627E-2,-1.815501E-2,-5.475227E-2],"categories":[],"categories_nodes":[],"categories_segments":[],"categories_sizes":[],"default_left":[0,0,0,0,0,0,0,0,0,0,0,0,0,0,0,0,0,0,0,0,0,0,0,0,0,0,0,0,0,0,0,0,0,0,0,0,0,0,0,0,0,0,0,0,0,0,0,0,0],"id":29,"left_children":[1,3,5,7,9,11,13,15,17,19,21,23,25,27,-1,29,31,-1,33,35,37,39,41,-1,-1,43,-1,45,47,-1,-1,-1,-1,-1,-1,-1,-1,-1,-1,-1,-1,-1,-1,-1,-1,-1,-1,-1,-1],"loss_changes":[2.1341873E3,2.9798096E1,3.082362E2,6.7487793E0,1.9793213E1,7.475195E1,6.794098E0,1.6693115E0,2.8448431E1,4.015396E0,1.2147478E1,8.135624E0,3.39917E0,6.163025E-1,0E0,4.4952393E-1,7.5177917E0,0E0,4.3143177E-1,2.311493E0,2.3945215E0,1.23855095E1,6.592563E0,0E0,0E0,1.0640278E1,0E0,3.8923643E0,8.704376E-2,0E0,0E0,0E0,0E0,0E0,0E0,0E0,0E0,0E0,0E0,0E0,0E0,0E0,0E0,0E0,0E0,0E0,0E0,0E0,0E0],"parents":[2147483647,0,0,1,1,2,2,3,3,4,4,5,5,6,6,7,7,8,8,9,9,10,10,11,11,12,12,13,13,15,15,16,16,18,18,19,19,20,20,21,21,22,22,25,25,27,27,28,28],"right_children":[2,4,6,8,10,12,14,16,18,20,22,24,26,28,-1,30,32,-1,34,36,38,40,42,-1,-1,44,-1,46,48,-1,-1,-1,-1,-1,-1,-1,-1,-1,-1,-1,-1,-1,-1,-1,-1,-1,-1,-1,-1],"split_conditions":[6.2780994E-1,2.573424E-1,7.586395E-1,1.5404146E0,-4.2918122E-1,-8.183981E-1,1.5386919E0,-3.3734635E-1,-7.3000246E-1,3.9857907E0,1.0620102E0,-2.2138724E-2,-3.07107E-1,-4.488214E0,-8.673189E-3,-6.4888544E-2,-8.379279E-1,-5.0885923E-2,-6.4902455E-1,-7.419314E-2,-9.2158014E-1,7.321424E-1,3.3817298E0,-5.480757E-2,4.6052407E-2,-4.532353E-1,5.684313E-2,9.2452973E-1,-5.037998E-1,-5.4441392E-2,-2.5653575E-2,-7.722927E-4,-4.9794998E-2,2.8376488E-2,1.0299637E-1,4.9870512E-3,-4.5064062E-2,-3.5369154E-2,2.0056235E-2,1.0178566E-2,-4.6572726E-2,5.2667677E-2,-4.247328E-3,-2.2448434E-2,6.474834E-2,-4.7040448E-2,3.6198627E-2,-1.815501E-2,-5.475227E-2],"split_indices":[1,5,4,0,0,5,9,6,5,5,6,0,5,9,0,5,5,0,5,6,0,6,5,0,0,0,0,1,6,0,0,0,0,0,0,0,0,0,0,0,0,0,0,0,0,0,0,0,0],"split_type":[0,0,0,0,0,0,0,0,0,0,0,0,0,0,0,0,0,0,0,0,0,0,0,0,0,0,0,0,0,0,0,0,0,0,0,0,0,0,0,0,0,0,0,0,0,0,0,0,0],"sum_hessian":[2.3217292E3,1.1611051E3,1.1606241E3,1.0125682E3,1.4853699E2,1.0812751E3,7.93491E1,9.9382605E2,1.8742092E1,9.21104E1,5.6426598E1,1.7965603E1,1.0633094E3,6.87348E1,1.0614292E1,4.9086237E2,5.0296368E2,1.5012598E1,3.729495E0,8.5916756E1,6.1936398E0,3.702607E1,1.9400528E1,1.647E1,1.4956033E0,1.2491105E1,1.0508184E3,5.3594265E0,6.3375378E1,4.8691095E2,3.9514155E0,7.978075E0,4.9498563E2,1.2640091E0,2.465486E0,2.1770573E0,8.37397E1,2.1970203E0,3.9966197E0,1.760435E1,1.942172E1,1.0562454E1,8.838074E0,5.549068E0,6.9420376E0,4.2705216E0,1.0889046E0,1.4138048E0,6.196157E1],"tree_param":{"num_deleted":"0","num_feature":"12","num_nodes":"49","size_leaf_vector":"1"}},{"base_weights":[7.0420085E-3,-9.609007E-1,8.686306E-1,-9.735514E-1,5.1230367E-2,5.5144995E-2,-3.249643E-1,-9.8053646E-1,4.577081E-2,-4.4095865E-1,8.3198816E-1,5.1402863E-2,-9.856022E-1,-6.675269E-1,1.1613136E-2,5.4936077E-2,-4.1102707E-2,-4.969804E-2,1.050117E-2,-3.5988607E-2,4.678483E-2,-2.853707E-2,1.3612444E-2],"categories":[],"categories_nodes":[],"categories_segments":[],"categories_sizes":[],"default_left":[0,0,0,0,0,0,0,0,0,0,0,0,0,0,0,0,0,0,0,0,0,0,0],"id":30,"left_children":[1,3,5,7,-1,-1,9,11,-1,13,15,-1,17,19,21,-1,-1,-1,-1,-1,-1,-1,-1],"loss_changes":[1.8506587E3,2.7247131E1,3.286482E2,1.4606018E1,0E0,0E0,2.632084E1,1.1550537E1,0E0,1.8098446E1,8.831066E0,0E0,1.0537415E1,1.0522667E1,9.238236E0,0E0,0E0,0E0,0E0,0E0,0E0,0E0,0E0],"parents":[2147483647,0,0,1,1,2,2,3,3,6,6,7,7,9,9,10,10,12,12,13,13,14,14],"right_children":[2,4,6,8,-1,-1,10,12,-1,14,16,-1,18,20,22,-1,-1,-1,-1,-1,-1,-1,-1],"split_conditions":[2.573424E-1,6.9904476E-1,2.912329E-1,1.3483219E1,5.1230367E-2,5.5144995E-2,8.5230744E-1,-3.8536274E0,4.577081E-2,-1.8298174E-1,7.586395E-1,5.1402863E-2,1.5706911E0,1.5386919E0,5.718175E-1,5.4936077E-2,-4.1102707E-2,-4.969804E-2,1.050117E-2,-3.5988607E-2,4.678483E-2,-2.853707E-2,1.3612444E-2],"split_indices":[5,9,5,11,0,0,7,7,0,0,4,0,7,9,5,0,0,0,0,0,0,0,0],"split_type":[0,0,0,0,0,0,0,0,0,0,0,0,0,0,0,0,0,0,0,0,0,0,0],"sum_hessian":[2.2170984E3,1.0440529E3,1.1730455E3,1.0379492E3,6.1036105E0,9.8064777E2,1.9239778E2,1.0346044E3,3.344859E0,1.7542845E2,1.6969332E1,2.0947146E0,1.0325096E3,1.1658716E2,5.884128E1,1.4901955E1,2.067376E0,1.025509E3,7.0006485E0,1.1344143E2,3.1457343E0,1.7824684E1,4.10166E1],"tree_param":{"num_deleted":"0","num_feature":"12","num_nodes":"23","size_leaf_vector":"1"}},{"base_weights":[7.31196E-3,-9.2574924E-1,9.409377E-1,-9.8876697E-1,-5.027791E-1,1.080149E0,-9.140423E-1,-1.0014576E0,-3.481783E-1,-5.502961E-1,6.3794576E-2,-6.9470173E-1,1.1179606E0,-5.525912E-2,-5.991966E-1,-5.1485967E-2,-8.847994E-1,-4.997564E-2,1.6593637E0,-6.273754E-1,1.5653428E-1,-9.8590565E-1,8.6019856E-1,5.8871293E-1,5.619069E-2,4.5493725E-3,-1.0030456E0,-5.1800292E-2,-4.1847322E-2,2.3464348E-2,9.877881E-2,-4.0221468E-2,-1.5403456E-2,3.8508512E-2,-2.1049732E-2,-1.8107617E-2,-5.3916674E-2,1.0045371E-2,5.7428785E-2,-1.18760355E-2,6.1059903E-2,5.2751806E-2,-8.749972E-3,-5.25747E-2,-8.447836E-3],"categories":[],"categories_nodes":[],"categories_segments":[],"categories_sizes":[],"default_left":[0,0,0,0,0,0,0,0,0,0,0,0,0,0,0,0,0,0,0,0,0,0,0,0,0,0,0,0,0,0,0,0,0,0,0,0,0,0,0,0,0,0,0,0,0],"id":31,"left_children":[1,3,5,7,9,11,13,15,17,19,-1,21,23,-1,25,-1,27,-1,29,31,33,35,37,39,-1,41,43,-1,-1,-1,-1,-1,-1,-1,-1,-1,-1,-1,-1,-1,-1,-1,-1,-1,-1],"loss_changes":[1.8694586E3,2.8112244E1,2.7798987E2,7.2370605E0,1.2637054E1,6.776965E1,3.8767548E0,2.1038818E0,2.7365288E1,7.629669E0,0E0,1.0555986E1,2.3671875E0,0E0,7.4840794E0,0E0,4.7470093E-1,0E0,1.0266857E0,6.8102074E0,5.4249296E0,6.774292E-1,5.137694E-1,6.976992E0,0E0,2.6914225E0,5.653076E-1,0E0,0E0,0E0,0E0,0E0,0E0,0E0,0E0,0E0,0E0,0E0,0E0,0E0,0E0,0E0,0E0,0E0,0E0],"parents":[2147483647,0,0,1,1,2,2,3,3,4,4,5,5,6,6,7,7,8,8,9,9,11,11,12,12,14,14,16,16,18,18,19,19,20,20,21,21,22,22,23,23,25,25,26,26],"right_children":[2,4,6,8,10,12,14,16,18,20,-1,22,24,-1,26,-1,28,-1,30,32,34,36,38,40,-1,42,44,-1,-1,-1,-1,-1,-1,-1,-1,-1,-1,-1,-1,-1,-1,-1,-1,-1,-1],"split_conditions":[6.2780994E-1,2.573424E-1,7.586395E-1,1.5404146E0,1.0480156E0,-6.7871773E-1,-1.8298174E-1,-2.9045022E-1,-7.1834344E-1,3.9857907E0,6.3794576E-2,-5.9882015E-2,-2.2600983E-1,-5.525912E-2,-2.1514824E-2,-5.1485967E-2,-1.2908794E0,-4.997564E-2,-6.4902455E-1,-4.2918122E-1,-4.1160136E-1,8.058418E-1,8.8763607E-1,-4.3460533E-1,5.619069E-2,-9.193478E-1,4.394628E0,-5.1800292E-2,-4.1847322E-2,2.3464348E-2,9.877881E-2,-4.0221468E-2,-1.5403456E-2,3.8508512E-2,-2.1049732E-2,-1.8107617E-2,-5.3916674E-2,1.0045371E-2,5.7428785E-2,-1.18760355E-2,6.1059903E-2,5.2751806E-2,-8.749972E-3,-5.25747E-2,-8.447836E-3],"split_indices":[1,5,4,0,0,5,0,5,5,5,0,0,5,0,8,0,0,0,5,0,0,1,1,0,0,7,4,0,0,0,0,0,0,0,0,0,0,0,0,0,0,0,0,0,0],"split_type":[0,0,0,0,0,0,0,0,0,0,0,0,0,0,0,0,0,0,0,0,0,0,0,0,0,0,0,0,0,0,0,0,0,0,0,0,0,0,0,0,0,0,0,0,0],"sum_hessian":[2.1440159E3,1.0723364E3,1.0716796E3,9.3212305E2,1.4021335E2,9.972558E2,7.442369E1,9.1346326E2,1.8659758E1,1.3723767E2,2.9756756E0,2.0440062E1,9.7681573E2,4.4747578E1,2.9676111E1,7.2902234E2,1.8444095E2,1.4467869E1,4.191889E0,1.23844894E2,1.33927765E1,1.7524065E1,2.9159954E0,1.1795983E1,9.650198E2,1.229062E1,1.7385492E1,3.937465E1,1.4506631E2,1.401475E0,2.7904136E0,7.8691505E1,4.5153397E1,6.33168E0,7.0610967E0,2.8963232E0,1.4627743E1,1.4036461E0,1.5123492E0,5.385376E0,6.410608E0,1.0823094E0,1.120831E1,1.6184744E1,1.2007473E0],"tree_param":{"num_deleted":"0","num_feature":"12","num_nodes":"45","size_leaf_vector":"1"}},{"base_weights":[1.1485547E-3,-9.1161937E-1,9.311784E-1,-9.747383E-1,-4.984174E-1,-3.581046E-1,1.0732664E0,-9.847418E-1,-4.2303884E-1,-6.963244E-1,-4.6017192E-2,-4.7126558E-1,5.2865524E-2,-1.5028681E-1,1.1044518E0,-1.0181698E0,-8.476264E-1,-5.255729E-2,1.6104397E0,-7.701955E-1,8.956834E-2,-1.6166306E-1,5.885241E-2,6.104945E-2,-5.359077E-1,-4.7594538E-1,5.8315773E-2,1.7232348E-1,5.5479612E-2,-5.2460384E-2,-4.8162445E-2,-2.0393772E-2,-4.3401316E-2,2.8300185E-2,9.187492E-2,-1.2981485E-2,-4.0366188E-2,2.1816839E-2,-1.6002582E-2,5.664321E-4,-4.8398376E-2,-2.9534658E-2,4.940681E-2,5.2007653E-2,-3.5285212E-2,-3.1185804E-2,4.1621752E-2],"categories":[],"categories_nodes":[],"categories_segments":[],"categories_sizes":[],"default_left":[0,0,0,0,0,0,0,0,0,0,0,0,0,0,0,0,0,0,0,0,0,0,0,0,0,0,0,0,0,0,0,0,0,0,0,0,0,0,0,0,0,0,0,0,0,0,0],"id":32,"left_children":[1,3,5,7,9,11,13,15,17,19,21,23,-1,25,27,29,31,-1,33,35,37,39,-1,-1,41,43,-1,45,-1,-1,-1,-1,-1,-1,-1,-1,-1,-1,-1,-1,-1,-1,-1,-1,-1,-1,-1],"loss_changes":[1.7478906E3,2.6615906E1,1.8721362E2,4.5527954E0,1.2479961E1,1.6833683E1,3.5227295E1,3.1869507E0,2.4413208E1,5.708847E0,6.357146E0,1.1060642E1,0E0,1.0724454E1,4.102783E0,1.918335E-1,1.2532196E0,0E0,4.9160957E-2,1.4757042E0,1.4525194E0,5.689723E0,0E0,0E0,8.292362E0,7.604936E0,0E0,3.723957E0,0E0,0E0,0E0,0E0,0E0,0E0,0E0,0E0,0E0,0E0,0E0,0E0,0E0,0E0,0E0,0E0,0E0,0E0,0E0],"parents":[2147483647,0,0,1,1,2,2,3,3,4,4,5,5,6,6,7,7,8,8,9,9,10,10,11,11,13,13,14,14,15,15,16,16,18,18,19,19,20,20,21,21,24,24,25,25,27,27],"right_children":[2,4,6,8,10,12,14,16,18,20,22,24,-1,26,28,30,32,-1,34,36,38,40,-1,-1,42,44,-1,46,-1,-1,-1,-1,-1,-1,-1,-1,-1,-1,-1,-1,-1,-1,-1,-1,-1,-1,-1],"split_conditions":[6.2780994E-1,2.573424E-1,5.888178E-2,1.5404146E0,-1.2143188E-1,1.3483219E1,2.161277E-1,-2.9045022E-1,-7.412982E-1,3.9857907E0,1.0480156E0,-4.2353163E0,5.2865524E-2,1.8111321E-1,-2.6710472E0,-1.2143188E-1,-2.6915798E-1,-5.255729E-2,-6.4902455E-1,2.912329E-1,-7.674758E-1,9.314532E-1,5.885241E-2,6.104945E-2,6.958023E-1,-5.9719753E-1,5.8315773E-2,-7.2577035E-1,5.5479612E-2,-5.2460384E-2,-4.8162445E-2,-2.0393772E-2,-4.3401316E-2,2.8300185E-2,9.187492E-2,-1.2981485E-2,-4.0366188E-2,2.1816839E-2,-1.6002582E-2,5.664321E-4,-4.8398376E-2,-2.9534658E-2,4.940681E-2,5.2007653E-2,-3.5285212E-2,-3.1185804E-2,4.1621752E-2],"split_indices":[1,5,7,0,0,11,5,5,5,5,0,8,0,0,8,0,5,0,5,5,0,0,0,0,2,0,0,3,0,0,0,0,0,0,0,0,0,0,0,0,0,0,0,0,0,0,0],"split_type":[0,0,0,0,0,0,0,0,0,0,0,0,0,0,0,0,0,0,0,0,0,0,0,0,0,0,0,0,0,0,0,0,0,0,0,0,0,0,0,0,0,0,0,0,0,0,0],"sum_hessian":[2.0570032E3,1.0381458E3,1.01885736E3,8.993987E2,1.387471E2,1.0098808E2,9.178693E2,8.8261E2,1.6788645E1,9.6147316E1,4.259979E1,9.412956E1,6.858516E0,2.2717894E1,8.951514E2,7.044451E2,1.7816486E2,1.3195774E1,3.59287E0,8.790458E1,8.242741E0,3.9712616E1,2.8871698E0,2.8051648E0,9.13244E1,1.872485E1,3.993044E0,5.098777E0,8.900526E2,4.385173E2,2.6592786E2,8.829327E0,1.6933553E2,1.2653254E0,2.3275447E0,6.5008926E0,8.140369E1,4.428511E0,3.8142292E0,3.3509205E1,6.2034116E0,8.87466E1,2.5777984E0,2.0000522E0,1.6724796E1,2.3364038E0,2.762373E0],"tree_param":{"num_deleted":"0","num_feature":"12","num_nodes":"47","size_leaf_vector":"1"}},{"base_weights":[1.3162034E-3,-9.2747957E-1,8.416019E-1,-9.4110847E-1,5.1323827E-2,1.0693427E0,-3.217151E-1,-9.489782E-1,4.6863407E-2,5.507912E-2,-2.4747783E-2,-4.0506956E-1,8.816626E-1,-9.5358616E-1,4.9628165E-2,7.801435E-1,-6.36927E-1,-3.1570405E-1,-1.06205E0,5.1726736E-2,-1.6820384E-2,-4.807505E-2,1.3645007E-2,6.3010916E-2,1.0020668E-2,-3.75468E-2,2.3483565E-2,5.542312E-2,-2.0252323E-2,-5.6146134E-2,-2.0696586E-2],"categories":[],"categories_nodes":[],"categories_segments":[],"categories_sizes":[],"default_left":[0,0,0,0,0,0,0,0,0,0,0,0,0,0,0,0,0,0,0,0,0,0,0,0,0,0,0,0,0,0,0],"id":33,"left_children":[1,3,5,7,-1,9,11,13,-1,-1,15,17,19,21,-1,23,25,27,29,-1,-1,-1,-1,-1,-1,-1,-1,-1,-1,-1,-1],"loss_changes":[1.5465096E3,2.6030762E1,2.759677E2,1.4713867E1,0E0,3.0723816E1,1.7518814E1,9.282959E0,0E0,0E0,1.3252818E1,9.099251E0,2.470458E0,9.291382E0,0E0,2.9850907E0,2.277265E0,1.8628242E1,2.7760887E-1,0E0,0E0,0E0,0E0,0E0,0E0,0E0,0E0,0E0,0E0,0E0,0E0],"parents":[2147483647,0,0,1,1,2,2,3,3,5,5,6,6,7,7,10,10,11,11,12,12,13,13,15,15,16,16,17,17,18,18],"right_children":[2,4,6,8,-1,10,12,14,-1,-1,16,18,20,22,-1,24,26,28,30,-1,-1,-1,-1,-1,-1,-1,-1,-1,-1,-1,-1],"split_conditions":[2.573424E-1,6.9904476E-1,4.679511E-3,1.3483219E1,5.1323827E-2,2.912329E-1,8.5230744E-1,6.958023E-1,4.6863407E-2,5.507912E-2,-6.1445963E-2,1.0498713E0,7.586395E-1,1.5706911E0,4.9628165E-2,-1.0309488E-1,-2.1514824E-2,-1.4868367E0,6.9904476E-1,5.1726736E-2,-1.6820384E-2,-4.807505E-2,1.3645007E-2,6.3010916E-2,1.0020668E-2,-3.75468E-2,2.3483565E-2,5.542312E-2,-2.0252323E-2,-5.6146134E-2,-2.0696586E-2],"split_indices":[5,9,6,11,0,5,7,2,0,0,6,4,4,7,0,6,8,7,9,0,0,0,0,0,0,0,0,0,0,0,0],"split_type":[0,0,0,0,0,0,0,0,0,0,0,0,0,0,0,0,0,0,0,0,0,0,0,0,0,0,0,0,0,0,0],"sum_hessian":[1.9795518E3,9.402065E2,1.0393452E3,9.342087E2,5.997803E0,8.6925354E2,1.700917E2,9.308038E2,3.4049175E0,8.4436566E2,2.488786E1,1.5969359E2,1.0398121E1,9.291075E2,1.69626E0,1.0633109E1,1.4254749E1,1.4187555E2,1.781803E1,9.372515E0,1.0256059E0,9.233648E2,5.74268E0,5.1743913E0,5.458718E0,1.3214687E1,1.0400621E0,7.701563E0,1.34174E2,1.5618517E1,2.199513E0],"tree_param":{"num_deleted":"0","num_feature":"12","num_nodes":"31","size_leaf_vector":"1"}},{"base_weights":[4.577463E-3,-8.800358E-1,9.184026E-1,-9.3127507E-1,-3.684913E-1,1.065269E0,-8.5896856E-1,-9.4298536E-1,-2.9674682E-1,-4.6577343E-1,8.134509E-2,-8.16094E-1,1.0988595E0,-9.707973E-1,-9.380898E-3,-4.9637612E-2,-7.885307E-1,-4.8147693E-2,8.2419485E-2,-5.8763087E-1,1.7856568E-1,-5.2483004E-2,3.7480284E-2,6.489355E-1,5.5298544E-2,-9.987333E-1,1.1885504E-2,-4.0035274E-2,3.838862E-2,-3.928876E-2,-4.1908E-3,3.466842E-2,-2.7232563E-2,-7.843307E-3,6.421862E-2,-5.149988E-2,1.9457042E-2],"categories":[],"categories_nodes":[],"categories_segments":[],"categories_sizes":[],"default_left":[0,0,0,0,0,0,0,0,0,0,0,0,0,0,0,0,0,0,0,0,0,0,0,0,0,0,0,0,0,0,0,0,0,0,0,0,0],"id":34,"left_children":[1,3,5,7,9,11,13,15,17,19,-1,21,23,25,-1,-1,27,-1,-1,29,31,-1,-1,33,-1,35,-1,-1,-1,-1,-1,-1,-1,-1,-1,-1,-1],"loss_changes":[1.5427104E3,2.507373E1,2.4594824E2,6.2646484E0,1.8216955E1,5.5719177E1,5.2382965E0,5.861084E0,2.41601E1,6.8996983E0,0E0,6.5614223E0,2.01062E0,2.3187714E0,0E0,0E0,4.697815E0,0E0,0E0,7.222397E0,5.787428E0,0E0,0E0,8.234132E0,0E0,3.023777E0,0E0,0E0,0E0,0E0,0E0,0E0,0E0,0E0,0E0,0E0,0E0],"parents":[2147483647,0,0,1,1,2,2,3,3,4,4,5,5,6,6,7,7,8,8,9,9,11,11,12,12,13,13,16,16,19,19,20,20,23,23,25,25],"right_children":[2,4,6,8,10,12,14,16,18,20,-1,22,24,26,-1,-1,28,-1,-1,30,32,-1,-1,34,-1,36,-1,-1,-1,-1,-1,-1,-1,-1,-1,-1,-1],"split_conditions":[6.2780994E-1,5.718175E-1,7.586395E-1,1.5404146E0,8.018161E-1,-8.183981E-1,1.5386919E0,-2.9045022E-1,-7.1834344E-1,3.9857907E0,8.134509E-2,-2.2138724E-2,-2.2600983E-1,1.2942151E0,-9.380898E-3,-4.9637612E-2,-7.668047E-2,-4.8147693E-2,8.2419485E-2,-4.2918122E-1,-4.1160136E-1,-5.2483004E-2,3.7480284E-2,-2.939117E-1,5.5298544E-2,6.511863E-1,1.1885504E-2,-4.0035274E-2,3.838862E-2,-3.928876E-2,-4.1908E-3,3.466842E-2,-2.7232563E-2,-7.843307E-3,6.421862E-2,-5.149988E-2,1.9457042E-2],"split_indices":[1,5,4,0,0,5,9,5,5,5,0,0,5,0,0,0,3,0,0,0,0,0,0,3,0,2,0,0,0,0,0,0,0,0,0,0,0],"split_type":[0,0,0,0,0,0,0,0,0,0,0,0,0,0,0,0,0,0,0,0,0,0,0,0,0,0,0,0,0,0,0,0,0,0,0,0,0],"sum_hessian":[1.9063933E3,9.686981E2,9.376952E2,8.7975616E2,8.894197E1,8.664962E2,7.1199E1,8.6333704E2,1.64191E1,8.553827E1,3.4037042E0,1.4790754E1,8.5170544E2,6.0650276E1,1.0548722E1,6.4884534E2,2.144917E2,1.2606374E1,3.812726E0,7.200811E1,1.3530163E1,1.3157543E1,1.6332107E0,1.4687679E1,8.3701776E2,5.9449615E1,1.2006618E0,2.1330852E2,1.1831763E0,5.1280464E1,2.0727642E1,7.928058E0,5.6021047E0,6.8078003E0,7.8798795E0,5.839209E1,1.0575236E0],"tree_param":{"num_deleted":"0","num_feature":"12","num_nodes":"37","size_leaf_vector":"1"}},{"base_weights":[7.859466E-3,-8.713724E-1,9.212089E-1,-9.396718E-1,-4.528466E-1,-2.8471544E-1,1.0612732E0,-9.5233715E-1,-3.0441982E-1,-5.3787774E-1,3.1047282E-1,-3.9748693E-1,5.120935E-2,6.301497E-3,1.0877663E0,-9.9628186E-1,-8.846126E-1,-5.144616E-2,8.3451495E-2,-6.1506754E-1,9.070811E-2,-6.6576403E-1,9.491431E-2,6.0259666E-2,-4.647592E-1,-4.7389525E-1,1.0890827E0,2.0608543E-1,5.46309E-2,-5.080983E-2,-3.952029E-2,-1.9845555E-2,-4.5923702E-2,-3.786589E-2,-1.4973009E-2,2.9487638E-2,-2.7160728E-2,-3.8816687E-2,-8.840231E-3,-3.8580105E-2,-7.886588E-3,5.09272E-2,-3.86998E-2,9.246611E-3,6.2440723E-2,-2.4464183E-2,3.9484035E-2],"categories":[],"categories_nodes":[],"categories_segments":[],"categories_sizes":[],"default_left":[0,0,0,0,0,0,0,0,0,0,0,0,0,0,0,0,0,0,0,0,0,0,0,0,0,0,0,0,0,0,0,0,0,0,0,0,0,0,0,0,0,0,0,0,0,0,0],"id":35,"left_children":[1,3,5,7,9,11,13,15,17,19,21,23,-1,25,27,29,31,-1,-1,33,35,37,-1,-1,39,41,43,45,-1,-1,-1,-1,-1,-1,-1,-1,-1,-1,-1,-1,-1,-1,-1,-1,-1,-1,-1],"loss_changes":[1.4802589E3,2.6421448E1,1.5301196E2,6.1990356E0,8.844629E0,1.4410607E1,2.2638916E1,1.4706421E0,2.6359716E1,5.9103127E0,2.3018408E1,1.0054969E1,0E0,1.13593855E1,3.1558838E0,1.1293335E0,4.918579E0,0E0,0E0,4.6036224E0,4.770862E0,3.726368E-1,0E0,0E0,7.9086266E0,7.571144E0,7.381778E-1,2.6418874E0,0E0,0E0,0E0,0E0,0E0,0E0,0E0,0E0,0E0,0E0,0E0,0E0,0E0,0E0,0E0,0E0,0E0,0E0,0E0],"parents":[2147483647,0,0,1,1,2,2,3,3,4,4,5,5,6,6,7,7,8,8,9,9,10,10,11,11,13,13,14,14,15,15,16,16,19,19,20,20,21,21,24,24,25,25,26,26,27,27],"right_children":[2,4,6,8,10,12,14,16,18,20,22,24,-1,26,28,30,32,-1,-1,34,36,38,-1,-1,40,42,44,46,-1,-1,-1,-1,-1,-1,-1,-1,-1,-1,-1,-1,-1,-1,-1,-1,-1,-1,-1],"split_conditions":[6.2780994E-1,2.573424E-1,5.888178E-2,1.5404146E0,8.018161E-1,1.3483219E1,2.4214078E-1,-1.2143188E-1,-7.1834344E-1,3.9857907E0,3.3196348E-1,-4.2353163E0,5.120935E-2,-7.365928E-2,-2.6710472E0,-1.2933473E-1,-2.2138724E-2,-5.144616E-2,8.3451495E-2,-4.2918122E-1,-4.1160136E-1,1.0252728E0,9.491431E-2,6.0259666E-2,-2.2600983E-1,-5.491257E-1,-1.059091E0,-7.2577035E-1,5.46309E-2,-5.080983E-2,-3.952029E-2,-1.9845555E-2,-4.5923702E-2,-3.786589E-2,-1.4973009E-2,2.9487638E-2,-2.7160728E-2,-3.8816687E-2,-8.840231E-3,-3.8580105E-2,-7.886588E-3,5.09272E-2,-3.86998E-2,9.246611E-3,6.2440723E-2,-2.4464183E-2,3.9484035E-2],"split_indices":[1,5,7,0,0,11,5,0,5,5,5,8,0,0,8,5,0,0,0,0,0,0,0,0,5,0,2,3,0,0,0,0,0,0,0,0,0,0,0,0,0,0,0,0,0,0,0],"split_type":[0,0,0,0,0,0,0,0,0,0,0,0,0,0,0,0,0,0,0,0,0,0,0,0,0,0,0,0,0,0,0,0,0,0,0,0,0,0,0,0,0,0,0,0,0,0,0],"sum_hessian":[1.8413057E3,9.3819867E2,9.0310693E2,8.055032E2,1.3269553E2,9.387029E1,8.0923663E2,7.8926794E2,1.6235218E1,1.1966103E2,1.3034483E1,8.70653E1,6.8049903E0,1.9854536E1,7.893821E2,4.7035568E2,3.189123E2,1.2225533E1,4.009685E0,1.0659301E2,1.3068026E1,8.431338E0,4.6031446E0,2.8259249E0,8.423938E1,1.4144157E1,5.71038E0,4.5579863E0,7.848241E2,4.2528146E2,4.50742E1,2.1530653E1,2.9738162E2,7.251126E1,3.4081753E1,7.3508635E0,5.7171626E0,6.3970346E0,2.0343041E0,4.1375553E1,4.2863823E1,1.9671683E0,1.2176989E1,1.1813273E0,4.5290527E0,2.1535635E0,2.4044228E0],"tree_param":{"num_deleted":"0","num_feature":"12","num_nodes":"47","size_leaf_vector":"1"}},{"base_weights":[4.501701E-3,-8.7719196E-1,8.090036E-1,-8.912804E-1,4.989257E-2,1.0641782E0,-2.779956E-1,-9.1377896E-1,-1.493292E-1,1.0860299E0,-5.847879E-1,-4.8732084E-1,2.291514E-1,-9.2217857E-1,4.605312E-1,1.2211634E0,-5.205076E-1,1.5195742E-2,5.4356087E-2,-4.8385028E-2,1.6431038E-1,-5.810324E-1,4.91877E-1,-3.4870943E-1,5.080348E-1,-4.6672743E-2,-1.6933888E-2,-3.533979E-2,5.8350842E-2,-1.7606096E-2,8.332777E-2,1.5268477E-2,-5.1983178E-2,4.476608E-2,-3.702503E-2,6.586638E-2,-3.1658087E-2,5.6961447E-2,4.4111675E-3,-2.6808728E-2,3.17236E-2,1.5397856E-2,7.527759E-2],"categories":[],"categories_nodes":[],"categories_segments":[],"categories_sizes":[],"default_left":[0,0,0,0,0,0,0,0,0,0,0,0,0,0,0,0,0,0,0,0,0,0,0,0,0,0,0,0,0,0,0,0,0,0,0,0,0,0,0,0,0,0,0],"id":36,"left_children":[1,3,5,7,-1,9,11,13,15,17,19,21,23,25,27,29,31,-1,-1,-1,33,35,37,39,41,-1,-1,-1,-1,-1,-1,-1,-1,-1,-1,-1,-1,-1,-1,-1,-1,-1,-1],"loss_changes":[1.2554254E3,2.3196411E1,2.569933E2,1.3863281E1,0E0,2.7649109E1,1.8874207E1,9.818787E0,1.3799778E1,3.0181885E-1,3.1579247E0,1.1794949E1,8.60832E0,5.0080566E0,5.4517994E0,4.6608057E0,9.348969E0,0E0,0E0,0E0,3.5675545E0,1.2207287E1,2.903592E0,3.5883079E0,6.660181E0,0E0,0E0,0E0,0E0,0E0,0E0,0E0,0E0,0E0,0E0,0E0,0E0,0E0,0E0,0E0,0E0,0E0,0E0],"parents":[2147483647,0,0,1,1,2,2,3,3,5,5,6,6,7,7,8,8,9,9,10,10,11,11,12,12,13,13,14,14,15,15,16,16,20,20,21,21,22,22,23,23,24,24],"right_children":[2,4,6,8,-1,10,12,14,16,18,20,22,24,26,28,30,32,-1,-1,-1,34,36,38,40,42,-1,-1,-1,-1,-1,-1,-1,-1,-1,-1,-1,-1,-1,-1,-1,-1,-1,-1],"split_conditions":[2.573424E-1,6.9904476E-1,2.912329E-1,1.23231135E-1,4.989257E-2,4.679511E-3,-1.2143188E-1,3.2736447E-1,-7.668047E-2,-1.1733325E-2,1.3005637E-1,3.9857907E0,5.718175E-1,1.5404146E0,-5.007775E-1,2.2733498E-1,1.926767E0,1.5195742E-2,5.4356087E-2,-4.8385028E-2,1.0091084E0,-1.2647094E-1,2.651343E0,-7.668047E-2,8.018161E-1,-4.6672743E-2,-1.6933888E-2,-3.533979E-2,5.8350842E-2,-1.7606096E-2,8.332777E-2,1.5268477E-2,-5.1983178E-2,4.476608E-2,-3.702503E-2,6.586638E-2,-3.1658087E-2,5.6961447E-2,4.4111675E-3,-2.6808728E-2,3.17236E-2,1.5397856E-2,7.527759E-2],"split_indices":[5,9,5,2,0,6,0,3,3,6,6,5,5,0,0,2,4,0,0,0,6,6,6,3,0,0,0,0,0,0,0,0,0,0,0,0,0,0,0,0,0,0,0],"split_type":[0,0,0,0,0,0,0,0,0,0,0,0,0,0,0,0,0,0,0,0,0,0,0,0,0,0,0,0,0,0,0,0,0,0,0,0,0,0,0,0,0,0,0],"sum_hessian":[1.7678892E3,8.4343567E2,9.244535E2,8.376664E2,5.7693005E0,7.4871295E2,1.7574051E2,8.127882E2,2.4878168E1,7.3925793E2,9.45506E0,1.2442365E2,5.1316853E1,8.0817773E2,4.610474E0,4.8139133E0,2.0064255E1,1.4199873E0,7.378379E2,6.063693E0,3.391367E0,1.1392717E2,1.0496478E1,1.6622923E1,3.4693928E1,7.922673E2,1.5910454E1,1.7381268E0,2.8723474E0,1.1083238E0,3.7055893E0,7.903347E0,1.2160908E1,1.8816444E0,1.5097225E0,2.3961911E0,1.1153098E2,3.3314443E0,7.1650343E0,1.4342805E1,2.2801175E0,2.9987823E1,4.706106E0],"tree_param":{"num_deleted":"0","num_feature":"12","num_nodes":"43","size_leaf_vector":"1"}},{"base_weights":[-2.9075448E-3,-8.5833174E-1,5.5599153E-1,-8.8229483E-1,5.1638253E-2,5.326265E-2,-5.742127E-1,-9.162268E-1,-1.2229642E-1,-6.2784773E-1,5.2043366E-1,-9.2762166E-1,7.9997116E-1,7.075762E-2,-6.2798923E-1,-6.4908755E-1,6.461414E-2,-2.0183407E-1,5.2468933E-2,6.349406E-2,-4.666934E-2,9.710407E-6,5.182146E-2,-3.770965E-2,3.3365738E-2,-3.691913E-2,-1.0747E-2,-3.6705498E-2,4.1827228E-2],"categories":[],"categories_nodes":[],"categories_segments":[],"categories_sizes":[],"default_left":[0,0,0,0,0,0,0,0,0,0,0,0,0,0,0,0,0,0,0,0,0,0,0,0,0,0,0,0,0],"id":37,"left_children":[1,3,5,7,-1,-1,9,11,13,15,17,19,21,-1,23,25,-1,27,-1,-1,-1,-1,-1,-1,-1,-1,-1,-1,-1],"loss_changes":[8.180592E2,3.1552704E1,5.9627625E2,1.712085E1,0E0,0E0,1.9238968E1,1.3248657E1,2.3990856E1,1.3380783E1,6.1688466E0,9.239807E0,8.990681E-1,0E0,4.2717123E0,1.1658691E1,0E0,4.7209563E0,0E0,0E0,0E0,0E0,0E0,0E0,0E0,0E0,0E0,0E0,0E0],"parents":[2147483647,0,0,1,1,2,2,3,3,6,6,7,7,8,8,9,9,10,10,11,11,12,12,14,14,15,15,17,17],"right_children":[2,4,6,8,-1,-1,10,12,14,16,18,20,22,-1,24,26,-1,28,-1,-1,-1,-1,-1,-1,-1,-1,-1,-1,-1],"split_conditions":[-3.1716423E-3,6.9904476E-1,4.679511E-3,1.9127298E-2,5.1638253E-2,5.326265E-2,1.7332047E-1,4.6685505E0,2.1882577E0,1.1678329E0,-2.154614E0,-4.488214E0,6.1632333E0,7.075762E-2,1.4215693E0,1.7683345E0,6.461414E-2,-2.4453162E-1,5.2468933E-2,6.349406E-2,-4.666934E-2,9.710407E-6,5.182146E-2,-3.770965E-2,3.3365738E-2,-3.691913E-2,-1.0747E-2,-3.6705498E-2,4.1827228E-2],"split_indices":[6,9,6,2,0,0,3,8,8,0,10,9,8,0,3,6,0,0,0,0,0,0,0,0,0,0,0,0,0],"split_type":[0,0,0,0,0,0,0,0,0,0,0,0,0,0,0,0,0,0,0,0,0,0,0,0,0,0,0,0,0],"sum_hessian":[1.7090798E3,6.751665E2,1.0339133E3,6.6724493E2,7.921573E0,7.1279205E2,3.2112128E2,6.3853064E2,2.8714273E1,3.0652853E2,1.4592736E1,6.3477545E2,3.7551785E0,6.661869E0,2.2052404E1,3.0382965E2,2.6988978E0,6.430454E0,8.162283E0,1.0872144E0,6.3368823E2,1.0852696E0,2.6699088E0,2.0475216E1,1.5771883E0,2.5141757E2,5.2412067E1,4.4449716E0,1.9854822E0],"tree_param":{"num_deleted":"0","num_feature":"12","num_nodes":"29","size_leaf_vector":"1"}},{"base_weights":[3.0921435E-3,-8.424057E-1,8.995397E-1,-9.167156E-1,-4.2439172E-1,1.0428715E0,-8.047243E-1,-9.2980546E-1,-2.8953865E-1,-6.6630644E-1,-6.564164E-2,-9.0352964E-1,1.0795285E0,-9.775609E-1,2.654191E-1,-9.587338E-1,-8.121406E-1,-4.6542205E-2,1.4522036E0,-7.7087384E-1,2.2454225E-1,-4.8525932E-1,2.547117E-1,-5.1412404E-2,1.7045425E-2,5.53258E-1,5.4329444E-2,-3.7416136E-1,-1.0202949E0,4.057975E-2,3.972604E-3,-4.3832667E-2,-4.8957724E-2,-1.6991658E-2,-4.168014E-2,1.25456E-2,8.7218076E-2,-2.0439412E-2,-4.353925E-2,5.273229E-2,-1.675634E-3,-3.0560536E-2,4.4294804E-2,5.4225686E-4,7.37417E-2,-1.0721372E-2,5.8747035E-2,-4.1478664E-2,3.2834474E-2,-5.386765E-2,-3.2598555E-2],"categories":[],"categories_nodes":[],"categories_segments":[],"categories_sizes":[],"default_left":[0,0,0,0,0,0,0,0,0,0,0,0,0,0,0,0,0,0,0,0,0,0,0,0,0,0,0,0,0,0,0,0,0,0,0,0,0,0,0,0,0,0,0,0,0,0,0,0,0,0,0],"id":38,"left_children":[1,3,5,7,9,11,13,15,17,19,21,23,25,27,29,31,33,-1,35,37,39,41,43,-1,-1,45,-1,47,49,-1,-1,-1,-1,-1,-1,-1,-1,-1,-1,-1,-1,-1,-1,-1,-1,-1,-1,-1,-1,-1,-1],"loss_changes":[1.2441292E3,2.5850525E1,1.9545789E2,5.6119995E0,1.1183325E1,5.3441772E1,1.1795757E1,1.6083374E0,1.9333004E1,7.3602448E0,7.2763724E0,2.5447092E0,2.0823364E0,1.0084229E0,8.963033E-1,7.58667E-2,1.1858139E0,0E0,1.2198486E0,2.1501274E0,1.9374071E0,4.5791974E0,9.157263E0,0E0,0E0,5.7872906E0,0E0,2.9600377E0,3.4350967E-1,0E0,0E0,0E0,0E0,0E0,0E0,0E0,0E0,0E0,0E0,0E0,0E0,0E0,0E0,0E0,0E0,0E0,0E0,0E0,0E0,0E0,0E0],"parents":[2147483647,0,0,1,1,2,2,3,3,4,4,5,5,6,6,7,7,8,8,9,9,10,10,11,11,12,12,13,13,14,14,15,15,16,16,18,18,19,19,20,20,21,21,22,22,25,25,27,27,28,28],"right_children":[2,4,6,8,10,12,14,16,18,20,22,24,26,28,30,32,34,-1,36,38,40,42,44,-1,-1,46,-1,48,50,-1,-1,-1,-1,-1,-1,-1,-1,-1,-1,-1,-1,-1,-1,-1,-1,-1,-1,-1,-1,-1,-1],"split_conditions":[6.2780994E-1,2.573424E-1,7.586395E-1,1.5404146E0,-4.3460533E-1,-8.183981E-1,1.5386919E0,-2.9045022E-1,-7.3000246E-1,3.9857907E0,5.718175E-1,8.439384E-2,-3.07107E-1,-4.488214E0,-1.2531302E0,-7.720691E-1,-2.6915798E-1,-4.6542205E-2,-6.4902455E-1,-1.2825156E0,-1.2300857E0,1.0480156E0,8.018161E-1,-5.1412404E-2,1.7045425E-2,-4.532353E-1,5.4329444E-2,9.2452973E-1,-2.7930933E-1,4.057975E-2,3.972604E-3,-4.3832667E-2,-4.8957724E-2,-1.6991658E-2,-4.168014E-2,1.25456E-2,8.7218076E-2,-2.0439412E-2,-4.353925E-2,5.273229E-2,-1.675634E-3,-3.0560536E-2,4.4294804E-2,5.4225686E-4,7.37417E-2,-1.0721372E-2,5.8747035E-2,-4.1478664E-2,3.2834474E-2,-5.386765E-2,-3.2598555E-2],"split_indices":[1,5,4,0,0,5,9,5,5,5,5,0,5,9,8,5,5,0,5,0,0,0,0,0,0,0,0,1,9,0,0,0,0,0,0,0,0,0,0,0,0,0,0,0,0,0,0,0,0,0,0],"split_type":[0,0,0,0,0,0,0,0,0,0,0,0,0,0,0,0,0,0,0,0,0,0,0,0,0,0,0,0,0,0,0,0,0,0,0,0,0,0,0,0,0,0,0,0,0,0,0,0,0,0,0],"sum_hessian":[1.6394517E3,8.437328E2,7.957189E2,7.153693E2,1.2836346E2,7.34347E2,6.1371872E1,7.0027136E2,1.5097949E1,7.6153694E1,5.2209766E1,1.3137311E1,7.2120966E2,5.291259E1,8.459284E0,5.5634406E2,1.4392735E2,1.13751955E1,3.7227533E0,6.827436E1,7.879336E0,2.2380156E1,2.982961E1,1.20985155E1,1.038796E0,1.0598266E1,7.1061145E2,4.144755E0,4.8767834E1,1.2941734E0,7.1651106E0,1.1958858E2,4.3675546E2,6.987658E0,1.369397E2,1.0919027E0,2.6308506E0,1.5866054E1,5.2408306E1,1.136517E0,6.7428193E0,2.1004925E1,1.3752308E0,2.570152E1,4.1280894E0,5.0353923E0,5.562873E0,3.0101688E0,1.1345861E0,4.055961E1,8.208226E0],"tree_param":{"num_deleted":"0",